<?xml version="1.0"?>
<opencv_storage>
<opencv_ml_svm>
  <format>3</format>
  <svmType>C_SVC</svmType>
  <kernel>
    <type>LINEAR</type></kernel>
  <C>1.</C>
  <term_criteria><iterations>1000</iterations></term_criteria>
  <var_count>900</var_count>
  <class_count>2</class_count>
  <class_labels type_id="opencv-matrix">
    <rows>2</rows>
    <cols>1</cols>
    <dt>i</dt>
    <data>
      0 1</data></class_labels>
  <sv_total>1</sv_total>
  <support_vectors>
    <_>
      -6.20705960e-03 4.64009158e-02 4.25095297e-02 3.13040875e-02
      -1.13637857e-02 -2.27495991e-02 -5.33133000e-02 -3.34537849e-02
      -5.41682765e-02 3.74312811e-02 4.15606871e-02 6.84520528e-02
      2.91794017e-02 8.46735574e-03 -7.81940017e-03 -2.75489744e-02
      9.05907887e-04 -5.07853460e-03 -1.43245906e-02 4.46808599e-02
      4.97181565e-02 5.00857085e-02 2.25557834e-02 -1.83033780e-03
      -3.94055657e-02 -2.19357200e-02 -4.02665995e-02 -9.09860246e-04
      1.53024215e-02 7.28287548e-02 1.67866834e-02 -1.91959292e-02
      -2.30622888e-02 -3.09534855e-02 -2.05382984e-02 -1.14585804e-02
      6.81915507e-02 3.65650281e-02 3.92004885e-02 -6.17413968e-03
      1.38266990e-02 -1.57945566e-02 -1.17845042e-02 4.38013785e-02
      4.95690964e-02 6.86932728e-02 1.06250066e-02 -2.49298085e-02
      -6.36739144e-03 -2.36463770e-02 -1.89961120e-02 -2.86794361e-02
      2.39105821e-02 5.75197749e-02 -6.80702738e-03 -1.39948875e-02
      1.69463716e-02 -1.40187740e-02 -1.40085872e-02 -4.91635054e-02
      -2.66915988e-02 -3.68077308e-03 1.60418227e-02 -9.39909555e-03
      -4.25490700e-02 -3.18348184e-02 -1.88492741e-02 -2.44983621e-02
      -4.27046902e-02 -4.92479391e-02 -1.20483311e-02 1.92150213e-02
      5.02141640e-02 4.59611276e-03 -5.29679842e-02 -1.46138528e-02
      -5.22152707e-02 -1.46522075e-02 -3.38252075e-02 2.89871953e-02
      5.24819605e-02 5.63495420e-02 2.10373346e-02 -1.14173340e-02
      1.05402488e-02 7.57819042e-03 4.08922322e-04 -3.36814323e-03
      2.51417048e-02 5.65415323e-02 -1.68713403e-03 -2.65934598e-02
      -4.69187088e-02 -1.46267954e-02 -7.89511204e-02 -3.29468809e-02
      -4.08567339e-02 -1.55594358e-02 1.50095113e-02 1.48629909e-02
      -1.10236956e-02 -3.69032994e-02 1.88932698e-02 -8.44951347e-03
      -1.47283403e-03 -3.09888683e-02 -4.79715550e-03 6.96400506e-03
      6.77997097e-02 3.05276904e-02 2.66907830e-03 8.39902787e-04
      -3.72017696e-02 -6.71799481e-03 -1.99206918e-02 1.21411067e-02
      6.92915544e-02 7.80814439e-02 4.48471233e-02 2.66167019e-02
      -1.01829320e-02 -2.02788096e-02 -4.94900160e-03 3.03180832e-02
      5.08423857e-02 9.28035900e-02 -3.03913169e-02 -7.40290619e-03
      -2.58180294e-02 -4.88608191e-03 -2.57128961e-02 6.29344070e-03
      -1.92348137e-02 -6.78081671e-03 -4.41611260e-02 3.33684385e-02
      1.29444094e-03 -1.30040301e-02 -9.44040250e-03 -3.35428747e-03
      1.87985413e-02 2.29854919e-02 2.58577168e-02 3.96478139e-02
      1.35931158e-02 9.89280175e-03 8.68125539e-03 -1.17234671e-02
      -8.26446712e-02 3.03275418e-03 6.06483519e-02 6.12660572e-02
      3.19848992e-02 1.83894876e-02 -1.58730691e-04 1.11219073e-02
      1.10156427e-03 -7.64708093e-04 3.17997746e-02 4.83578816e-02
      7.00155869e-02 3.30362432e-02 -5.70774749e-02 -2.02552811e-03
      3.28413141e-03 -5.34558110e-03 -5.08167446e-02 1.08678220e-02
      6.25864714e-02 2.54375543e-02 -4.42274734e-02 -4.60638106e-02
      2.47096969e-03 2.29936317e-02 2.80518606e-02 4.28241305e-02
      4.87728938e-02 6.48945197e-02 5.46440668e-02 -3.34908962e-02
      -2.28354018e-02 1.94920469e-02 3.53746638e-02 7.40215331e-02
      5.89850098e-02 4.64014336e-02 1.16065228e-02 -2.86243437e-03
      -3.15207243e-02 -6.47369772e-03 -6.72565948e-04 2.50536520e-02
      1.79976225e-02 4.34020814e-03 -1.05365622e-03 1.03709626e-03
      1.44506485e-04 -5.10678114e-03 -3.21616046e-02 -2.02580309e-03
      8.44729692e-03 6.71753287e-02 7.29796514e-02 3.90736312e-02
      1.67252664e-02 1.56391375e-02 -2.93657295e-02 -1.89456120e-02
      -2.52384925e-03 -3.35625187e-03 3.21995728e-02 2.85381731e-02
      2.44756998e-03 1.29185822e-02 2.80122980e-02 -1.71778090e-02
      6.30172063e-03 -1.25563154e-02 -3.97650152e-03 -1.17058912e-03
      -4.51429468e-03 -1.83535423e-02 -1.66421570e-02 -3.29396850e-03
      3.88161931e-03 -9.69428103e-03 -3.77580486e-02 -2.72636227e-02
      1.50541984e-03 1.08058134e-03 -1.77171025e-02 -4.89388108e-02
      -4.00998704e-02 -1.56984776e-02 2.05170456e-02 1.00687360e-02
      -2.12586652e-02 -3.64057138e-04 1.08874785e-02 -1.73404850e-02
      4.13579540e-03 4.00052071e-02 1.66659206e-02 6.81893388e-03
      -1.82041023e-02 -5.99043630e-02 -1.29911248e-02 -7.28633115e-03
      -5.57838753e-03 -5.14034219e-02 -7.56151741e-03 -4.81370650e-03
      -6.70159142e-03 -2.70669591e-02 -2.06100419e-02 1.04462905e-02
      -1.26805985e-02 -4.19342518e-03 -4.14867550e-02 -2.89114453e-02
      -3.58552067e-03 -1.49887577e-02 -2.33012550e-02 -2.98379809e-02
      1.56449880e-02 -2.72047315e-02 -8.72752687e-04 -3.72849032e-02
      -1.86530501e-02 2.32929969e-03 -8.14973004e-03 -1.26156127e-02
      -5.20967357e-02 -1.79940742e-02 -3.97880748e-02 -8.38733092e-03
      -4.66894321e-02 -8.80490337e-03 -3.18716327e-03 -1.81181636e-02
      -9.35221324e-04 -4.07300293e-02 -1.25297569e-02 -4.89035733e-02
      -8.38676002e-03 -4.18944359e-02 -5.63243823e-03 -1.69738401e-02
      -1.87454633e-02 -2.61551738e-02 -2.96811014e-02 1.71376707e-03
      3.71934241e-03 8.31691269e-03 -3.96109335e-02 -1.79243386e-02
      -9.58391931e-03 1.13951061e-02 -1.24337710e-02 -1.37818614e-02
      -5.01728058e-03 3.26567292e-02 8.91952775e-03 -3.53833521e-03
      2.39356724e-03 1.62179545e-02 -1.58190336e-02 -1.64144970e-02
      -5.52445836e-02 -1.25010898e-02 -3.00726201e-02 -6.38672290e-03
      -6.82811812e-02 -2.68048514e-02 -1.41991051e-02 2.09744442e-02
      -1.11356331e-02 -2.81050056e-02 -2.99231019e-02 7.97804072e-03
      -2.07099393e-02 -3.20745520e-02 -1.42294578e-02 2.07911301e-02
      -2.07727831e-02 -8.79494380e-03 -2.80699693e-03 -8.93848483e-03
      -2.35626232e-02 3.08485748e-03 1.55705074e-02 7.36331893e-03
      -1.07149044e-02 9.93210543e-03 4.22652345e-03 2.36530565e-02
      4.93350811e-02 9.15017426e-02 6.20080493e-02 5.94030246e-02
      2.09378377e-02 1.52656930e-02 -2.97263842e-02 -2.54295450e-02
      -3.08977831e-02 -2.99782753e-02 -1.13046868e-02 -2.69690380e-02
      -1.34026185e-02 -4.04303614e-03 -2.70302258e-02 -2.31895540e-02
      -1.60591938e-02 -4.10548382e-04 1.21650081e-02 7.21001104e-02
      3.06710061e-02 1.57315824e-02 -1.93102807e-02 -2.28684228e-02
      -5.10317571e-02 -4.49098423e-02 -6.13946049e-03 5.14758863e-02
      7.07805306e-02 3.53394970e-02 -2.28380878e-02 -7.66981998e-03
      -4.50982302e-02 -5.30469716e-02 -3.84065919e-02 -1.63969249e-02
      3.52139734e-02 4.55961674e-02 -8.36300757e-03 -4.91825584e-03
      2.05103569e-02 -5.17393723e-02 -3.20165455e-02 1.99142210e-02
      3.74830514e-02 5.29019274e-02 9.11708847e-02 3.52512300e-02
      2.30653696e-02 2.62816530e-02 -3.15315425e-02 -1.73577033e-02
      1.44363577e-02 1.90506633e-02 5.05758598e-02 6.65858015e-02
      1.18721332e-02 1.68647692e-02 1.72430892e-02 -1.62334628e-02
      4.65060491e-03 3.85815999e-03 -1.98164545e-02 2.14794204e-02
      1.81013308e-02 -2.33382620e-02 -1.49099892e-02 2.57984828e-02
      1.37601150e-02 -8.45301710e-03 -4.23426144e-02 -7.82788396e-02
      -1.75561886e-02 -2.44075190e-02 -3.18148248e-02 -7.56816417e-02
      -3.44554111e-02 -2.55261213e-02 2.40888782e-02 1.48582915e-02
      -3.94523609e-03 2.71606967e-02 4.19177152e-02 -7.20092619e-04
      2.22675316e-03 1.16236107e-02 3.59663591e-02 -1.14562772e-02
      -3.02971546e-02 -6.85162693e-02 3.88862868e-03 -1.10311797e-02
      -7.77091784e-03 -7.67285600e-02 -5.98197319e-02 -8.77802726e-03
      -1.72048565e-02 -3.56232300e-02 -5.03198691e-02 9.21816938e-03
      -3.48830856e-02 -1.20181069e-02 -4.17731963e-02 -1.11848013e-02
      -1.71081088e-02 -2.79582012e-02 -1.82940960e-02 -3.52212451e-02
      1.48514903e-03 -3.50974612e-02 6.81386003e-03 -3.52949277e-02
      -1.42901801e-02 -7.53282197e-03 -8.83154292e-03 -3.08850650e-02
      -5.49855977e-02 1.66369379e-02 -2.70916149e-02 -1.18335374e-02
      -6.72404468e-02 -2.54975595e-02 -1.30114593e-02 -2.48992722e-02
      -3.15054879e-02 -3.98722477e-02 9.49567836e-03 -3.50074321e-02
      -1.27208596e-02 -5.98315410e-02 -2.32890137e-02 -1.26547357e-02
      -6.43759221e-03 -2.19514649e-02 -4.63023409e-02 1.46677820e-02
      -4.23551463e-02 1.05125885e-02 -6.10935651e-02 -3.30298133e-02
      7.16060959e-03 2.93510687e-02 -1.03446059e-02 -1.79739557e-02
      -1.78051163e-02 1.97017123e-03 -1.61070824e-02 -2.93837544e-02
      -1.14795128e-02 2.63247713e-02 -2.44402904e-02 -3.61678265e-02
      -3.60920839e-02 5.69599960e-03 -5.23621701e-02 -2.08110083e-02
      -7.64123127e-02 -5.57349138e-02 -7.14879902e-03 1.24867270e-02
      3.05121555e-03 -2.64352486e-02 -1.51517279e-02 1.31853800e-02
      -2.94519905e-02 -5.29188402e-02 -2.97394693e-02 1.68555826e-02
      -2.43333299e-02 -1.37676187e-02 -1.80058330e-02 -8.38614162e-03
      1.12583712e-02 -8.47803988e-03 -1.70247126e-02 -6.84845727e-03
      -2.25045513e-02 -2.38166191e-02 -9.76738334e-03 -1.04553485e-02
      2.07084175e-02 7.75925592e-02 3.92473750e-02 6.94031594e-03
      -2.65837573e-02 -1.96027327e-02 -4.76545654e-03 6.09774049e-03
      -1.74842495e-02 -2.01094449e-02 6.36816304e-03 -2.76161972e-02
      -3.55596468e-02 -2.20249835e-02 -1.83396451e-02 -4.15904634e-02
      5.57535980e-03 1.39564071e-02 1.95136778e-02 7.46826231e-02
      3.30390930e-02 -5.67703610e-05 -5.00281923e-04 -5.09639904e-02
      -1.23099312e-02 1.44222770e-02 4.26535718e-02 5.93619198e-02
      9.45663527e-02 5.51544838e-02 2.59492416e-02 2.31812820e-02
      -1.30237304e-02 -4.47318368e-02 1.80122312e-02 2.12244559e-02
      3.98387238e-02 7.02436492e-02 1.31833004e-02 2.44626142e-02
      2.25182939e-02 -4.26369421e-02 4.79945447e-03 4.91421623e-03
      3.64500917e-02 5.74424975e-02 1.03802375e-01 5.94003163e-02
      5.03698438e-02 2.86699720e-02 1.03864362e-02 1.44960601e-02
      1.39573328e-02 1.29620340e-02 1.53859556e-02 4.83777188e-02
      5.47057111e-03 2.72579100e-02 2.44311001e-02 2.05178894e-02
      -9.62110516e-03 3.15075591e-02 5.27660549e-03 3.18878243e-04
      3.28913815e-02 -5.15585206e-03 2.66168695e-02 3.08333635e-02
      2.54399260e-03 -5.35668395e-02 -5.14327607e-04 -4.22768220e-02
      1.80999283e-02 -1.56250652e-02 -1.72219723e-02 -4.68764715e-02
      -1.65039022e-02 -4.77968790e-02 2.31064390e-02 2.05520801e-02
      9.62310378e-03 -1.09371049e-02 3.42231952e-02 -7.05364393e-03
      1.30028538e-02 2.18609590e-02 2.59431396e-02 1.91945713e-02
      -5.58348605e-03 -1.95760257e-03 1.89095959e-02 2.79935244e-02
      5.47537813e-04 -2.50827558e-02 -4.90862317e-03 1.59887690e-02
      -1.43027315e-02 -3.89159052e-03 -3.98862585e-02 -1.67732511e-03
      -2.73963921e-02 -2.72046439e-02 -5.38749173e-02 -3.99971521e-03
      -2.57109981e-02 -2.90929731e-02 -1.94986556e-02 -4.07154746e-02
      5.24557137e-04 -5.11088520e-02 -2.97122188e-02 -4.37617339e-02
      -1.11173177e-02 -3.63987200e-02 1.87791642e-02 -1.13885971e-02
      -1.55821191e-02 1.05188908e-02 -1.93023751e-03 3.30405612e-03
      -2.54103784e-02 6.20660000e-03 1.93438549e-02 1.26025844e-02
      4.36337665e-03 -2.07318757e-02 3.56069347e-03 -1.90526061e-02
      2.35857479e-02 -1.52053824e-02 1.65808015e-02 1.17985932e-02
      7.76741374e-03 -1.30313763e-03 -3.16493809e-02 1.59574132e-02
      -3.94883826e-02 -8.38548969e-03 -3.70068997e-02 -2.48028301e-02
      2.06186902e-03 2.36836681e-03 1.42638497e-02 -1.91292539e-02
      -2.27678604e-02 -1.09271044e-02 -1.90372653e-02 -3.49733382e-02
      -2.61327215e-02 8.25893506e-03 -5.56821562e-03 -1.08826871e-03
      -1.25429789e-02 1.29100140e-02 5.48057212e-03 1.87173393e-02
      -2.36870758e-02 -9.65779740e-03 2.14672927e-03 -6.96874084e-03
      5.58725046e-03 -4.24555596e-03 1.47668552e-02 7.29393959e-03
      3.12725157e-02 -3.19681019e-02 -1.87677927e-02 1.03761367e-02
      -1.94974206e-02 8.30248371e-03 -2.04770509e-02 -2.08838694e-02
      -2.59580761e-02 -3.09285149e-02 -3.16162743e-02 -2.22915150e-02
      -2.26061270e-02 -1.87061299e-02 -1.00388136e-02 -3.55628924e-03
      1.08836610e-02 7.39377663e-02 4.54134196e-02 6.74712472e-03
      -1.47703495e-02 -1.74530875e-02 -3.96597832e-02 -3.86466249e-03
      1.04834056e-02 1.26120914e-02 -2.62077786e-02 5.58534870e-03
      -3.94599773e-02 -2.30320711e-02 -3.00861150e-02 -2.23338474e-02
      9.57211200e-03 3.78971212e-02 8.62023607e-02 9.94221568e-02
      8.70465338e-02 3.80108058e-02 -1.47887841e-02 -2.03501508e-02
      -9.36119724e-03 -4.53918148e-03 9.82516818e-03 1.41738113e-02
      5.14456853e-02 5.54694086e-02 7.75133222e-02 4.64507192e-02
      1.95627492e-02 1.03517610e-03 1.26792886e-03 3.60932713e-03
      -3.66692874e-03 1.91242956e-02 1.22973835e-02 5.76957390e-02
      2.97516230e-02 2.35085897e-02 9.72003583e-03 -1.28482468e-02
      4.06407472e-03 -8.95964354e-03 1.97298639e-02 5.54055013e-02
      7.45376796e-02 4.55765650e-02 3.00277229e-02 3.77271883e-02
      3.89559590e-03 7.00370362e-03 -1.07696401e-02 1.52979717e-02
      3.33853774e-02 7.36403465e-02 4.16901112e-02 6.99477196e-02
      1.52425440e-02 7.21677020e-03 2.50420766e-03 -1.26703708e-02
      8.66512675e-03 -1.14304582e-02 1.56506319e-02 1.73909441e-02
      1.97350346e-02 1.20278513e-02 -1.10178487e-02 -1.82001274e-02
      -1.60871353e-03 -1.78739596e-02 -1.05712982e-02 -2.93122493e-02
      -1.00024231e-02 1.30044334e-02 7.21084774e-02 4.76635322e-02
      7.46005960e-03 -3.10233328e-03 9.19305999e-03 -8.68900586e-03
      5.70070595e-02 4.65414897e-02 9.48095396e-02 7.87681937e-02
      4.34568897e-02 -6.08655019e-03 1.00697745e-02 -3.13464925e-02
      -1.82423349e-02 -1.16120493e-02 1.90851297e-02 7.58715793e-02
      2.06191503e-02 -7.77934957e-03 -1.57364272e-02 6.79933699e-03
      -4.87708263e-02 -1.91798527e-03 -1.88101847e-02 3.44904908e-03
      2.86517534e-02 1.39421457e-02 3.37937893e-03 -2.51594149e-02
      -1.93130001e-02 -3.62041034e-02 1.33729344e-02 -9.67914704e-03
      3.87939299e-03 2.17897575e-02 6.29779771e-02 2.60180160e-02
      -2.51709949e-02 1.59852263e-02 -4.02376018e-02 -4.52781282e-02
      -5.58381341e-02 1.62299182e-02 6.22620657e-02 4.47494239e-02
      1.95561126e-02 -2.80690882e-02 -2.29103118e-02 -3.14425118e-02
      -2.37442143e-02 -1.86513383e-02 1.82474460e-02 4.64896560e-02
      -3.62889953e-02 -2.45256978e-03 -1.68038104e-02 -3.47773021e-04
      -6.59707235e-03 1.85559317e-02 -2.55590789e-02 -5.42127341e-03
      -2.96677426e-02 -7.89922625e-02 -2.02172948e-03 1.00223422e-02
      1.59859024e-02 -2.40731472e-03 2.74423975e-02 -2.02924218e-02
      -1.77476238e-02 -7.20321909e-02 4.85053919e-02 2.50735078e-02
      -1.85130071e-02 6.05839863e-03 -1.82024203e-02 -2.36981828e-03
      -1.47293257e-02 3.03162280e-02 4.81779054e-02 7.29785785e-02
      4.14584093e-02 5.39334789e-02 9.39576235e-03 8.03180039e-03
      4.74889157e-03 -8.24739039e-03 4.56691980e-02 5.33601008e-02
      -5.82546815e-02 2.46785451e-02 4.84579466e-02 1.47668375e-02
      -6.44696578e-02 -3.97425937e-03 -2.80149430e-02 -2.60260031e-02
      -5.70810810e-02 -6.46551028e-02 6.14254363e-02 8.37217718e-02
      7.41942823e-02 3.18603963e-02 2.60371063e-02 1.66229550e-02
      -5.31756366e-03 -7.48905912e-02 2.71959882e-02 4.64835465e-02
      8.33086967e-02 1.24503337e-02 -4.89827320e-02 -7.59383803e-03
      -2.72951499e-02 -2.91102938e-02 5.53110708e-03 3.74139138e-02
      8.45698863e-02 8.89858603e-02 5.12419865e-02 9.03906394e-03
      -1.41104255e-02 -2.90885917e-03 -1.16452212e-02 1.09875044e-02</_></support_vectors>
  <uncompressed_sv_total>16</uncompressed_sv_total>
  <uncompressed_support_vectors>
    <_>
      2.99967173e-02 2.05634981e-02 1.64034754e-01 2.59313911e-01
      2.59313911e-01 1.44881278e-01 1.67562906e-02 1.14478124e-03
      1.38545772e-02 2.47388616e-01 4.52599749e-02 1.76347092e-01
      2.37609059e-01 2.40259394e-01 2.59159207e-01 5.06419651e-02
      2.11685733e-03 1.17887825e-01 5.75223416e-02 4.13598772e-03
      1.69837445e-01 2.59313911e-01 2.59313911e-01 1.72615841e-01
      2.79098041e-02 1.11260731e-02 1.04629777e-01 2.59313911e-01
      1.44223729e-02 2.59313911e-01 2.59313911e-01 1.44804835e-01
      1.47762343e-01 1.49841886e-02 2.34903283e-02 2.59313911e-01
      3.45235139e-01 2.34380998e-02 5.30195944e-02 8.24906752e-02
      1.11463979e-01 9.68262330e-02 2.07252391e-02 2.40819510e-02
      3.17481399e-01 3.45235139e-01 6.45743730e-03 4.67905484e-04
      2.26604534e-04 2.41211895e-02 4.63810953e-04 1.12496130e-03
      6.17593601e-02 3.45235139e-01 3.45235139e-01 7.09485076e-03
      8.84262249e-02 8.67853239e-02 5.02051935e-02 4.28108536e-02
      1.15539609e-02 3.22320163e-02 3.45235139e-01 3.45235139e-01
      7.28401938e-04 7.03136728e-04 5.22933515e-05 2.22897576e-03
      5.37943888e-05 3.35521027e-02 4.44154814e-02 3.45235139e-01
      3.50593746e-01 9.68701299e-03 7.53620057e-04 0. 1.49894757e-02 0.
      4.86523873e-04 4.57978919e-02 3.50593746e-01 3.50593746e-01
      8.46047625e-02 8.66706774e-04 0. 1.45871779e-02 0. 4.29842476e-04
      5.12705445e-02 3.50593746e-01 3.50593746e-01 7.91635423e-04
      6.77408185e-04 0. 1.53319794e-03 0. 1.70547049e-02 1.10625941e-02
      3.50593746e-01 3.50593746e-01 8.31768382e-03 6.38766214e-03
      3.74446926e-03 1.73769658e-03 0. 6.46134722e-04 1.44280568e-02
      3.50593746e-01 3.50252122e-01 6.23740219e-02 6.93001261e-04 0.
      1.53485816e-02 0. 5.08475525e-04 1.91361196e-02 3.50252122e-01
      3.50252122e-01 1.90089215e-02 1.49147853e-03 1.44118723e-02
      5.84279560e-02 4.25889529e-03 4.75740340e-03 4.00991477e-02
      3.50252122e-01 3.50252122e-01 2.42512822e-02 1.14255110e-02
      5.43593755e-03 2.00284109e-03 0. 6.17545214e-04 1.68333594e-02
      3.50252122e-01 3.50252122e-01 1.63470507e-02 4.48661810e-03
      1.09094819e-02 4.33079489e-02 8.77619255e-03 9.85906576e-04
      3.95668969e-02 3.50252122e-01 2.43103400e-01 8.49601720e-03
      6.94250837e-02 1.44374967e-01 2.49489188e-01 1.55961150e-02
      1.19082183e-01 1.29917130e-01 2.23681420e-01 5.47796637e-02
      4.73785476e-04 8.92686620e-02 1.98977321e-01 2.62128919e-01
      1.04802795e-01 2.02733308e-01 1.60980672e-01 8.55896175e-02
      2.62128919e-01 1.04923109e-02 2.53073238e-02 8.33735764e-02
      2.39234939e-01 4.11416776e-02 1.45955652e-01 1.18184209e-01
      2.62128919e-01 2.40141675e-01 3.28079462e-02 6.43223226e-02
      1.49992600e-01 2.62128919e-01 8.22718814e-02 2.62128919e-01
      1.63590863e-01 2.62128919e-01 7.20404163e-02 1.48285357e-02
      7.08905458e-02 1.73113167e-01 2.96661437e-01 2.93546379e-01
      6.42255247e-02 6.92424038e-03 1.04857937e-01 2.96661437e-01
      6.27845079e-02 1.38316095e-01 1.70270190e-01 1.89367756e-01
      5.00080995e-02 1.52023544e-03 1.43939406e-02 2.96661437e-01
      1.75391007e-02 1.12598343e-02 1.46284759e-01 2.96661437e-01
      2.96661437e-01 1.98063627e-01 4.59968671e-02 1.80623523e-04
      1.54495500e-02 1.87791809e-01 4.91074324e-02 1.35200754e-01
      2.96661437e-01 2.96661437e-01 4.55104113e-02 1.64313987e-02
      5.96177706e-04 1.63975134e-01 3.40157121e-01 2.43380666e-02
      3.07663325e-02 3.65208127e-02 4.17838395e-02 1.44937392e-02
      2.78292838e-02 4.84832264e-02 3.40157121e-01 3.40157121e-01
      5.57131541e-04 7.14030059e-04 5.17589739e-04 1.25128880e-01
      1.02598079e-01 1.54462188e-01 1.02350816e-01 3.40157121e-01
      2.67096698e-01 1.99933387e-02 2.73359753e-02 7.11747184e-02
      1.30193830e-01 3.31407078e-02 2.97346506e-02 2.59331428e-02
      2.44167656e-01 1.50507227e-01 9.50886868e-04 3.91171686e-02
      5.34059219e-02 3.40157121e-01 3.40157121e-01 1.40256643e-01
      6.70520663e-02 1.60956919e-01 3.44304293e-01 9.34231095e-04
      1.00884261e-03 1.84813936e-04 1.40741676e-01 9.64981094e-02
      1.12246633e-01 4.31471355e-02 3.44304293e-01 3.44304293e-01
      4.42964695e-02 3.43559384e-02 7.27161318e-02 1.08998977e-01
      4.11504880e-02 3.60797788e-03 1.74184237e-02 3.44304293e-01
      5.35563454e-02 2.72378675e-04 3.78316343e-02 5.43167591e-02
      3.44304293e-01 3.44304293e-01 1.00419708e-01 3.02139819e-02
      5.27353510e-02 5.29564545e-02 3.42573822e-02 2.69252602e-02
      1.87449425e-01 3.44304293e-01 1.93232983e-01 2.53514498e-02
      1.32588460e-03 4.45694327e-02 3.38041842e-01 8.72160941e-02
      4.22718748e-02 9.00194943e-02 9.71218422e-02 5.05769476e-02
      4.82013496e-03 1.36501445e-02 3.38041842e-01 3.38041842e-01
      5.28649315e-02 1.43288905e-02 3.11510935e-02 3.49861681e-02
      2.00736485e-02 3.16808722e-03 4.14068885e-02 3.38041842e-01
      1.62835062e-01 6.79251254e-02 3.35752666e-02 2.46425867e-01
      3.38041842e-01 2.46867567e-01 4.29445542e-02 1.08297460e-03
      7.85275847e-02 3.38041842e-01 4.04806845e-02 1.18819382e-02
      9.27474126e-02 1.43879592e-01 9.35400426e-02 2.20019910e-02
      1.26723768e-02 2.67495871e-01 3.11999470e-01 1.02049913e-02
      6.34427066e-04 1.25933401e-02 1.30286127e-01 6.25490323e-02
      1.04183309e-01 1.01984955e-01 3.11999470e-01 2.51102269e-01
      3.12694572e-02 6.60692528e-02 9.93813947e-02 3.11999470e-01
      1.30506694e-01 1.56948075e-01 9.57549065e-02 2.84869909e-01
      2.14202479e-01 1.32974435e-03 3.64272331e-04 1.33722750e-02
      3.11999470e-01 1.75724730e-01 7.20903128e-02 4.77386639e-02
      2.15350986e-01 5.99234328e-02 2.63555651e-03 2.45463289e-02
      7.74060562e-02 3.11999470e-01 3.11999470e-01 1.19547136e-01
      3.72717753e-02 5.90887330e-02 4.69197461e-04 2.55553401e-04
      2.49714136e-01 3.10495049e-01 3.10495049e-01 9.55466330e-02
      2.98569016e-02 1.42814388e-04 4.52588691e-04 1.97840040e-03
      1.03770650e-03 1.62289873e-01 3.10495049e-01 3.10495049e-01
      7.67258927e-02 2.91020442e-02 4.36663424e-04 1.56205357e-03
      1.23927742e-03 7.98142049e-03 2.48000816e-01 3.10495049e-01
      3.10495049e-01 1.75628453e-01 3.18947621e-02 1.29190958e-04
      1.20273826e-03 2.50092056e-03 5.23702428e-03 1.60701066e-01
      3.10495049e-01 2.98966110e-01 8.79900679e-02 1.29972743e-02
      4.95468441e-04 2.29031057e-03 4.09946591e-03 2.80521368e-03
      4.54346947e-02 1.04548812e-01 1.93408787e-01 5.53559549e-02
      1.94803886e-02 1.21444336e-03 3.15009290e-03 1.78290950e-03
      1.48757710e-03 2.07543373e-01 3.37699145e-01 3.84802520e-01
      3.84802520e-01 8.12859759e-02 5.42984053e-04 1.48695055e-03
      4.14609769e-03 3.30716115e-03 2.56939977e-02 7.50045404e-02
      1.97743341e-01 3.44493352e-02 1.39217135e-02 2.41321814e-03
      4.03456530e-03 2.13671150e-03 1.57999259e-03 1.07395098e-01
      3.84802520e-01 3.84802520e-01 3.48109931e-01 8.18376541e-02
      2.92698853e-03 2.37509166e-03 1.32146495e-04 9.48538509e-05
      1.35226026e-01 2.32382298e-01 3.21578711e-01 3.21578711e-01
      4.88088131e-02 3.03387314e-05 1.24765953e-04 7.91932049e-04
      3.83128063e-05 1.93036310e-02 2.03352079e-01 3.21578711e-01
      2.50791341e-01 3.35106477e-02 0. 0. 1.85302095e-04 1.62765049e-04
      6.93129376e-02 3.21578711e-01 3.21578711e-01 2.24217862e-01
      4.93947454e-02 5.28780976e-04 2.49532488e-04 0. 0. 8.75657201e-02
      2.68996060e-01 3.21578711e-01 2.38118246e-01 4.06192876e-02 0. 0.
      4.18824935e-03 2.82577996e-04 3.71906981e-02 3.20608944e-01
      3.20608944e-01 3.20608944e-01 7.81724527e-02 3.11288517e-04
      1.13155739e-03 6.91352412e-03 1.47940603e-03 1.54094826e-02
      1.69405580e-01 3.20608944e-01 1.84256837e-01 4.01131250e-02
      1.47824711e-03 5.08562801e-03 8.72676785e-04 3.22701293e-04
      1.66632503e-01 3.20608944e-01 3.20608944e-01 3.20608944e-01
      7.75008798e-02 4.25902806e-04 9.11384297e-04 3.78039316e-03
      1.45988166e-03 6.41229153e-02 1.89888060e-01 3.20608944e-01
      1.65260345e-01 3.31072882e-02 2.38277810e-03 4.03674366e-03
      3.28244083e-03 9.39995749e-04 6.40368031e-04 2.40786765e-02
      3.77574265e-01 2.56716192e-01 6.33755326e-02 1.75773352e-03
      4.22753813e-03 9.50281322e-03 8.83166795e-04 1.05527765e-03
      8.09935257e-02 3.77574265e-01 3.77574265e-01 1.75103799e-01
      2.11482029e-03 9.81068239e-03 2.44439114e-03 1.28210499e-03
      7.63343240e-04 3.39489169e-02 3.01171660e-01 1.81851923e-01
      6.40136227e-02 2.27070297e-03 3.02124256e-03 2.37326156e-02
      5.60097455e-04 8.71536962e-04 1.21685170e-01 3.77574265e-01
      3.77574265e-01 1.74548343e-01 1.21414766e-03 2.41247062e-02
      3.37737263e-03 2.90870275e-02 2.80036747e-01 3.54233563e-01
      3.54233563e-01 1.89333633e-01 2.02943664e-02 8.98475919e-05
      3.36586474e-03 3.33997863e-03 1.40163470e-02 1.24299720e-01
      2.95965552e-01 2.91194886e-01 9.57791060e-02 9.77905840e-03
      5.88986499e-04 3.28518543e-03 1.66076235e-02 1.31511111e-02
      1.84793219e-01 3.54233563e-01 3.54233563e-01 1.79970905e-01
      1.42388284e-01 3.54639851e-02 3.88620049e-02 5.35778655e-03
      6.37360709e-03 5.23454547e-02 2.23774955e-01 1.87337980e-01
      3.27874497e-02 4.20470014e-02 1.87141020e-02 2.13487651e-02
      3.60187842e-03 1.14190998e-03 9.22993291e-03 5.04234247e-02
      1.76796302e-01 3.01043745e-02 5.38435439e-03 1.69368170e-03
      3.70115484e-03 1.43161253e-03 6.12851116e-04 4.50386144e-02
      4.16295260e-01 4.16295260e-01 2.78231531e-01 1.53594790e-02
      2.04943563e-03 1.66292232e-03 4.44162497e-03 1.58105302e-03
      1.46554802e-02 4.82505225e-02 1.79674685e-01 6.76534027e-02
      1.23546505e-02 7.83538737e-04 5.95283555e-03 2.19634431e-03
      1.17553212e-03 9.11700875e-02 3.70933443e-01 4.16295260e-01
      4.16295260e-01 5.06803878e-02 6.70747133e-04 2.17625150e-03
      5.81754030e-05 9.18433216e-05 2.41619330e-02 2.70886868e-01
      3.17877114e-01 1.68957621e-01 7.36471545e-03 3.93649563e-04
      1.08249253e-04 0. 0. 4.85455096e-02 2.52784461e-01 3.17877114e-01
      2.87950277e-01 5.09580113e-02 0. 0. 1.86206205e-04 1.24315382e-04
      4.83583212e-02 2.10871667e-01 3.17877114e-01 3.17877114e-01
      2.05408558e-02 4.59171861e-05 1.86206205e-04 0. 0. 9.73411351e-02
      2.80163705e-01 3.17877114e-01 3.17877114e-01 3.19529772e-02 0. 0.
      7.76071625e-04 6.48221350e-04 9.87668633e-02 3.18948001e-01
      3.18948001e-01 3.18948001e-01 1.06695242e-01 5.01656032e-04
      7.87096855e-04 3.00223543e-03 1.54162419e-03 3.81813385e-02
      1.78472489e-01 2.60383040e-01 1.93970695e-01 4.28087860e-02
      1.49351393e-03 3.02842236e-03 1.14934915e-03 1.23118097e-03
      1.96572095e-01 3.18948001e-01 3.18948001e-01 3.18948001e-01
      7.28827864e-02 1.10559507e-04 9.68469132e-04 3.77007434e-03
      2.51357653e-03 7.53527582e-02 1.96077317e-01 3.01437557e-01
      2.11592108e-01 3.11010741e-02 2.65550363e-04 3.40893189e-03
      1.98375108e-03 1.02669303e-03 3.00929969e-04 2.67685782e-02
      2.47353256e-01 1.54810250e-01 3.28932218e-02 9.14422621e-04
      2.00565974e-03 2.13699844e-02 4.31195396e-04 5.56770130e-04
      1.74944833e-01 3.96584511e-01 3.96584511e-01 1.79541573e-01
      1.36991376e-02 2.23981831e-02 1.19797532e-02 2.63903420e-02
      1.69116966e-02 2.16419026e-02 1.34398505e-01 8.88914391e-02
      1.91586856e-02 3.04953748e-04 4.98346006e-03 3.66604216e-02
      1.12107590e-01 1.40442640e-01 2.87312120e-01 3.96584511e-01
      3.96584511e-01 2.67061412e-01 1.74238663e-02 1.46388439e-02
      3.54889147e-02 3.69818808e-05 1.87714547e-02 1.90726697e-01
      1.77402645e-01 2.00080156e-01 3.16766709e-01 2.14724675e-01
      1.40964285e-01 1.84220560e-02 3.72228416e-04 2.73356983e-03
      3.76533270e-02 3.15923616e-02 3.49565521e-02 2.25255892e-01
      2.11551115e-01 1.15066074e-01 5.69337346e-02 1.99753704e-04
      1.85046272e-04 4.00019018e-03 2.58715376e-02 1.10819377e-01
      3.16766709e-01 3.16766709e-01 2.90789187e-01 6.66630715e-02
      3.64689942e-04 6.30698923e-04 8.92055221e-04 2.41097361e-02
      2.83944886e-02 3.16766709e-01 3.16766709e-01 3.16766709e-01
      7.12825079e-03 1.23893039e-03 4.24901722e-03 3.23988572e-02
      1.02724209e-01 3.68166864e-02 6.90532923e-02 8.79181027e-02
      4.40565795e-02 2.04065046e-03 8.85568152e-04 2.41601206e-02
      3.02434266e-01 3.15630943e-01 3.15630943e-01 3.23662013e-02
      3.89045989e-03 4.35168529e-03 1.03694290e-01 3.87338959e-02
      4.26042564e-02 4.81449962e-02 1.51558354e-01 6.67678341e-02
      3.15630943e-01 3.15630943e-01 2.47743949e-01 8.74120891e-02
      9.29958820e-02 2.21038193e-01 3.15630943e-01 3.15630943e-01
      2.59296775e-01 1.63060948e-01 7.28823766e-02 9.50364769e-02
      2.86171882e-04 9.55823562e-05 2.01028455e-02 2.73933262e-01
      3.15445662e-01 3.15445662e-01 2.07304023e-02 3.08627350e-05
      2.86171882e-04 0. 0. 5.95478676e-02 2.23828733e-01 3.15445662e-01
      2.93408394e-01 8.02796893e-03 0. 0. 2.25567538e-02 3.82475071e-02
      1.57243505e-01 3.15445662e-01 3.15445662e-01 2.21658096e-01
      2.13183202e-02 1.46841339e-04 2.05465686e-02 6.64976938e-03 0. 0.
      1.80296898e-01 3.15445662e-01 2.48758152e-01 1.10879652e-01
      2.43992694e-02 1.06232231e-02 9.98429139e-04 1.88755826e-03
      8.31760168e-02 2.91163296e-01 2.91163296e-01 2.91163296e-01
      1.29260309e-02 3.88503322e-05 7.17721297e-04 2.44267248e-02
      6.46429211e-02 8.17767680e-02 1.08789034e-01 2.13649422e-01
      1.30250335e-01 5.92732942e-03 1.28095257e-04 4.85303625e-03
      8.36176649e-02 1.10321812e-01 2.11655814e-02 2.44216859e-01
      2.91163296e-01 2.91163296e-01 1.91683471e-01 6.12131096e-02
      4.82346863e-02 2.74392486e-01 2.91163296e-01 2.91163296e-01
      1.44278035e-01 2.55354732e-01 9.93909314e-02 9.44530591e-02
      4.42487486e-02 8.03728923e-02 6.23224825e-02 2.04142213e-01
      1.55390054e-01 5.22942608e-03 1.87593382e-02 1.34888357e-02
      3.08065698e-03 2.45360658e-04 9.35976952e-03 1.21657252e-01
      3.41916233e-01 3.41916233e-01 9.18097645e-02 1.76507130e-01
      1.98705554e-01 6.16088733e-02 1.39834243e-03 2.38161031e-02
      2.25059301e-01 3.41916233e-01 3.41916233e-01 3.25787961e-02
      3.02100088e-02 2.95406848e-04 6.46515982e-04 1.97653251e-04
      4.24175523e-02 2.58229703e-01 3.41916233e-01 3.41916233e-01
      3.15090343e-02 3.97742055e-02 5.65764960e-03 3.51544819e-03
      3.13822413e-04 5.31090908e-02</_>
    <_>
      4.21093069e-02 1.12680167e-01 2.03647211e-01 2.53923535e-01
      2.53923535e-01 1.03236541e-01 4.94891889e-02 5.71144465e-03
      1.55250123e-02 2.53923535e-01 2.26162329e-01 2.09873512e-01
      1.23719677e-01 1.51793316e-01 2.43228793e-01 1.73448786e-01
      2.43719611e-02 1.32055923e-01 5.66498972e-02 8.61006081e-02
      1.60165414e-01 2.53923535e-01 2.53923535e-01 1.05991818e-01
      1.22276455e-01 4.73598056e-02 1.01912901e-01 2.53923535e-01
      1.72191054e-01 2.53923535e-01 1.05611123e-01 1.23216256e-01
      1.49100766e-01 1.27314582e-01 4.45476770e-02 2.53923535e-01
      3.43687832e-01 1.19180888e-01 6.90016970e-02 4.59604785e-02
      7.21874535e-02 8.58072191e-02 7.16224387e-02 5.75910062e-02
      3.11151057e-01 3.43687832e-01 1.63637996e-02 1.31542038e-03
      5.21367881e-04 2.07138006e-02 1.16855348e-03 3.54490592e-04
      7.85806105e-02 3.43687832e-01 3.43687832e-01 4.63545136e-02
      1.13418564e-01 4.41695862e-02 4.22512516e-02 4.74559441e-02
      4.42981608e-02 2.28002518e-02 3.43687832e-01 3.43687832e-01
      6.66524575e-04 6.48968213e-04 3.74119030e-04 1.04673831e-02
      6.66244095e-03 1.25778727e-02 1.15048029e-02 3.43687832e-01
      3.52705002e-01 5.38859656e-03 3.28355934e-04 6.13316079e-05
      1.08660161e-02 1.37810945e-03 8.90265917e-04 2.64801681e-02
      3.52705002e-01 3.52705002e-01 7.90799502e-03 2.11522376e-04 0.
      8.15463532e-03 2.81471468e-04 6.42473868e-04 1.52169436e-03
      3.52705002e-01 3.52705002e-01 5.19739406e-04 1.99953109e-04
      1.87485013e-04 6.59795897e-03 4.45430167e-03 5.18649258e-03
      3.72991408e-03 3.52705002e-01 3.52705002e-01 1.32746287e-02
      1.89846964e-03 1.15554385e-05 9.48275032e-04 5.36893087e-04
      5.03080315e-04 8.36720748e-04 3.52705002e-01 3.49824011e-01
      2.83917170e-02 5.22751652e-04 6.66176958e-04 1.33333122e-02 0.
      6.81849313e-04 2.27862081e-04 3.49824011e-01 3.49824011e-01
      4.32842672e-02 1.71267129e-02 3.28260772e-02 7.52351061e-02
      5.11769997e-03 1.09693129e-02 2.76238900e-02 3.49824011e-01
      3.49824011e-01 3.49076651e-02 5.01584634e-03 1.53733141e-04
      1.02457160e-03 2.37850370e-04 4.98000765e-04 3.69565631e-03
      3.49824011e-01 3.49824011e-01 1.98486950e-02 1.05190035e-02
      2.31687762e-02 4.43394408e-02 9.95626952e-03 2.27912869e-02
      4.24967408e-02 3.49824011e-01 2.08074495e-01 1.40710054e-02
      8.71588364e-02 1.96557030e-01 2.45776191e-01 6.13793321e-02
      5.11196032e-02 1.14932023e-01 2.60181189e-01 5.32303341e-02
      5.30259823e-03 7.93174356e-02 2.09583253e-01 2.60181189e-01
      1.73671752e-01 1.57371134e-01 1.37071162e-01 1.53887242e-01
      2.60181189e-01 4.89115715e-02 5.76855615e-02 1.56527370e-01
      1.79675952e-01 6.51634857e-02 1.32237360e-01 1.53443560e-01
      2.60181189e-01 2.34110683e-01 6.22556880e-02 8.26220885e-02
      2.60172546e-01 2.60181189e-01 1.58331543e-01 1.42994329e-01
      1.57469064e-01 1.65645808e-01 6.65440410e-02 5.02978154e-02
      1.03546299e-01 2.01331571e-01 2.97818691e-01 1.51595384e-01
      1.95165247e-01 7.44401217e-02 9.92112234e-02 2.97818691e-01
      1.26655027e-01 1.42650038e-01 1.47178859e-01 1.88844979e-01
      4.62559834e-02 3.17143947e-02 4.01028134e-02 2.97818691e-01
      1.55847427e-02 6.68617859e-02 2.20319241e-01 2.97818691e-01
      2.97818691e-01 1.08175613e-01 8.76083225e-02 2.33615469e-02
      1.23215523e-02 1.82382867e-01 6.73502311e-02 7.45494291e-02
      2.97818691e-01 2.97818691e-01 2.63893940e-02 5.54432627e-03
      1.63751729e-02 1.59166202e-01 3.32084924e-01 3.88015099e-02
      3.46657634e-02 3.49977501e-02 3.95575501e-02 2.36577503e-02
      2.21276004e-02 4.55939248e-02 3.32084924e-01 3.32084924e-01
      1.66927406e-04 4.68744151e-03 2.47753505e-02 1.19064055e-01
      1.35403812e-01 8.22160542e-02 4.20354456e-02 3.32084924e-01
      2.67244875e-01 2.36592405e-02 1.69441737e-02 8.87314677e-02
      1.69404358e-01 4.83147651e-02 2.56436020e-02 3.31333503e-02
      2.54899889e-01 1.95830002e-01 7.81424242e-05 1.90695934e-02
      1.24041498e-01 3.32084924e-01 3.32084924e-01 1.64541408e-01
      3.30660790e-02 1.56632543e-01 3.50816637e-01 5.20798785e-04
      4.92043374e-03 2.44154688e-02 1.38839275e-01 1.21207945e-01
      6.01826869e-02 2.15632506e-02 3.50816637e-01 3.50816637e-01
      9.99544412e-02 2.69142296e-02 5.87334149e-02 6.23583049e-02
      5.02854101e-02 3.82671691e-02 2.23031431e-03 3.50816637e-01
      6.91172332e-02 1.35493188e-04 2.04515029e-02 1.21357985e-01
      3.50816637e-01 3.26434940e-01 1.49939552e-01 1.65884476e-02
      5.54757714e-02 4.63652201e-02 8.55966434e-02 5.60137033e-02
      1.92289025e-01 2.76710093e-01 1.58037558e-01 1.24410041e-01
      2.63324776e-03 3.83509509e-02 3.32154840e-01 1.62157536e-01
      4.25867215e-02 5.60889952e-02 4.38967235e-02 5.08221239e-02
      5.32517247e-02 6.21735910e-03 3.32154840e-01 3.32154840e-01
      8.67032930e-02 1.96552463e-02 1.46270497e-02 2.23118421e-02
      1.77279599e-02 3.89087498e-02 6.04027249e-02 3.32154840e-01
      1.38065085e-01 1.39690727e-01 8.50836933e-02 2.31948137e-01
      2.98874825e-01 1.77729487e-01 1.69058338e-01 6.67017652e-03
      9.38485339e-02 3.32154840e-01 7.41817281e-02 3.91978957e-02
      8.79945531e-02 1.53137654e-01 6.57837018e-02 8.23899359e-02
      3.10886223e-02 2.89894462e-01 3.00030917e-01 2.98268925e-02
      1.57923810e-02 2.99269091e-02 7.82005563e-02 8.70248750e-02
      1.29899889e-01 1.56642079e-01 3.00030917e-01 2.30347246e-01
      3.84180211e-02 6.04573488e-02 1.87237486e-01 2.70046979e-01
      1.79798722e-01 1.33821547e-01 1.08053818e-01 1.61670357e-01
      1.98139220e-01 1.43994356e-03 1.66861794e-03 3.53255519e-03
      3.00030917e-01 2.11327061e-01 1.63513780e-01 8.86937007e-02
      2.31795788e-01 3.44395079e-02 2.04926752e-03 1.80203579e-02
      1.02620117e-01 3.00030917e-01 3.00030917e-01 2.13513106e-01
      5.66123538e-02 4.94515263e-02 1.18107384e-03 3.12613994e-02
      1.63885400e-01 3.34690034e-01 3.34690034e-01 3.55592817e-02
      1.32362696e-03 9.40867467e-04 4.17176110e-04 3.85785871e-03
      4.61807102e-03 6.67921975e-02 3.34690034e-01 3.34690034e-01
      8.30951612e-03 3.09099304e-03 1.63140136e-03 2.81194248e-03
      1.57384831e-03 1.09046865e-02 2.13063255e-01 3.34690034e-01
      3.34690034e-01 6.49123117e-02 9.54694115e-04 5.30003686e-04
      1.19624019e-03 3.74245201e-03 1.34246899e-02 1.28758252e-01
      3.34690034e-01 3.34690034e-01 1.74441300e-02 2.90141487e-03
      1.87194301e-03 1.71333295e-03 1.26033770e-02 1.76318735e-03
      1.40686287e-02 1.46373853e-01 2.49852881e-01 4.63824384e-02
      1.77822076e-02 2.54601170e-03 1.09002953e-02 7.38102337e-03
      4.26546991e-04 3.63269895e-02 3.39025348e-01 3.74553293e-01
      3.74553293e-01 1.64129302e-01 7.99595960e-04 6.68399548e-03
      5.53812459e-03 4.27161390e-03 2.30240691e-02 1.05620265e-01
      2.02234164e-01 4.28012833e-02 5.29820099e-03 2.90100416e-03
      3.98547715e-03 2.55306112e-03 6.42277999e-04 1.50701240e-01
      3.74553293e-01 3.74553293e-01 3.57223392e-01 1.20298667e-02
      1.08109985e-03 2.60511017e-03 3.98233184e-04 6.10554271e-05
      2.35725380e-02 2.28194937e-01 3.24538440e-01 2.47396618e-01
      1.08349651e-01 7.07507788e-05 3.98233184e-04 8.37349449e-04
      3.45925451e-03 6.29379675e-02 2.83446729e-01 3.24538440e-01
      1.74591526e-01 5.41325361e-02 6.33180840e-04 3.26415175e-04
      2.25697237e-04 8.75358164e-05 9.60272253e-02 3.24538440e-01
      3.24538440e-01 2.20961660e-01 6.99055148e-03 1.13503171e-04
      2.42014255e-04 0. 0. 7.16402382e-02 3.24538440e-01 3.24538440e-01
      2.40260422e-01 2.34922748e-02 0. 0. 7.38940248e-03 9.36185569e-03
      1.45430177e-01 3.21601808e-01 3.21601808e-01 3.21601808e-01
      1.17693216e-01 2.62516737e-03 5.71186934e-03 1.67769976e-02
      6.90613547e-03 6.63371012e-02 2.11533964e-01 3.09030354e-01
      1.27781749e-01 5.29850498e-02 2.84480536e-03 1.58129856e-02
      1.04084588e-03 9.72404436e-04 1.60258397e-01 3.21601808e-01
      3.21601808e-01 3.21601808e-01 5.99844642e-02 6.10101779e-05
      9.00485145e-04 4.43336461e-03 2.73921690e-03 7.03028515e-02
      1.84433296e-01 2.99906999e-01 1.32015973e-01 3.17428708e-02
      1.06544839e-03 4.10818402e-03 7.54666049e-03 1.94437930e-03
      3.22047994e-03 7.33361579e-03 3.78957421e-01 2.35032260e-01
      9.99866426e-02 1.51651900e-03 7.55492784e-03 7.96704274e-03
      2.39455723e-03 4.80625499e-03 3.31104584e-02 3.78957421e-01
      3.78957421e-01 2.20045149e-01 1.63769501e-03 8.05290323e-03
      2.53684027e-03 1.10760471e-03 2.51647364e-03 9.55167040e-03
      2.94001073e-01 2.02219948e-01 6.18464127e-02 1.09926716e-03
      2.44681188e-03 1.66813359e-02 1.18989160e-03 1.86828221e-03
      3.43132243e-02 3.78957421e-01 3.78957421e-01 1.73411101e-01
      3.70887283e-04 1.65446270e-02 5.20386593e-03 9.99800488e-03
      2.35056624e-01 3.41908902e-01 3.41908902e-01 1.00591995e-01
      4.15339833e-04 1.66440950e-04 4.86811483e-03 4.12803190e-03
      7.35781435e-03 1.02074265e-01 3.16311538e-01 3.41908902e-01
      3.25181186e-02 2.29681912e-03 1.73619692e-03 3.05503304e-03
      1.97619833e-02 3.83095979e-03 1.79711804e-01 3.41908902e-01
      3.41908902e-01 1.19667195e-01 8.46993476e-02 1.21587709e-01
      4.90984023e-02 8.51033814e-03 4.14979469e-04 4.98498082e-02
      2.12589607e-01 3.25894982e-01 2.44134683e-02 5.21391779e-02
      7.68163204e-02 1.92591511e-02 4.33071749e-03 2.12654239e-03
      1.16325710e-02 5.20299450e-02 1.73878118e-01 5.32372594e-02
      3.16904369e-03 2.48693838e-03 4.81413724e-03 2.00613588e-03
      1.01473636e-03 9.95403826e-02 3.95273656e-01 3.97698194e-01
      3.97698194e-01 8.61574337e-03 1.30387093e-03 2.54155393e-03
      3.71644669e-03 7.27973063e-04 1.98298763e-03 3.91453058e-02
      1.78513065e-01 5.44611812e-02 1.29622845e-02 5.55401063e-03
      5.21192420e-03 1.59305718e-03 1.10721879e-03 1.88860558e-02
      3.33071142e-01 3.97698194e-01 3.97698194e-01 1.15102440e-01
      1.25834253e-03 2.24793586e-03 2.19846464e-04 2.39720321e-04
      6.79939687e-02 2.52433449e-01 3.53007317e-01 2.59675503e-01
      5.58623811e-03 1.67601014e-04 2.08640195e-04 0. 0. 2.92638410e-02
      1.68026477e-01 3.53007317e-01 3.06899399e-01 1.43069765e-02 0. 0.
      1.89637110e-04 2.76874809e-04 1.33277355e-02 2.14449584e-01
      3.53007317e-01 2.70103097e-01 8.23507160e-02 5.58592801e-05
      1.45166006e-04 0. 0. 1.23623237e-02 1.65437877e-01 3.53007317e-01
      2.91914731e-01 9.23018716e-03 1.00106699e-03 0. 7.68887927e-04
      4.42857418e-04 5.96104451e-02 2.43101329e-01 3.62948418e-01
      3.62948418e-01 3.33889425e-02 2.01677030e-04 7.89118872e-04
      2.74451030e-03 9.99278622e-04 2.63165440e-02 6.80204555e-02
      3.26569319e-01 1.44820988e-01 1.66097358e-02 1.13113096e-03
      2.88471323e-03 8.85693706e-04 1.08074548e-03 2.53756940e-02
      3.01157266e-01 3.62948418e-01 3.62948418e-01 2.26277225e-02
      4.03698906e-03 8.11672420e-04 2.17722054e-03 2.21963576e-03
      1.24735748e-02 1.13888986e-01 3.62948418e-01 1.88527465e-01
      1.19853318e-02 4.09998512e-03 2.14974489e-03 2.10871734e-03
      5.19273919e-04 1.64167443e-03 5.29246917e-03 2.62983531e-01
      1.48003191e-01 2.13782825e-02 7.76480359e-04 2.16917926e-03
      1.57555528e-02 8.87741568e-04 1.28758303e-03 2.97260713e-02
      4.18286890e-01 4.18286890e-01 1.24411345e-01 1.45563477e-04
      1.56239439e-02 3.98030644e-03 2.03772560e-02 9.56592709e-03
      6.58384582e-04 1.36752576e-01 9.17570889e-02 1.16318632e-02
      7.45403289e-04 1.47490588e-03 2.43311152e-02 1.39408231e-01
      1.13582291e-01 4.55983840e-02 4.18286890e-01 4.18286890e-01
      3.52500826e-01 2.06676535e-02 8.57849699e-03 2.50613280e-02
      5.07825927e-04 4.60569747e-02 1.49567172e-01 2.08450615e-01
      1.08229235e-01 3.03448647e-01 3.32067251e-01 8.94396529e-02
      2.21565217e-02 3.79998179e-04 1.16810184e-02 4.19440717e-02
      6.07571006e-02 1.69043560e-02 2.80080408e-01 3.32067251e-01
      5.08682765e-02 4.73783910e-02 7.71467225e-04 3.57534457e-03
      3.67370178e-03 3.77849191e-02 3.80538777e-02 3.32067251e-01
      3.32067251e-01 1.27892762e-01 6.92652240e-02 3.80399055e-04
      1.56637758e-03 9.00111161e-04 1.20795052e-02 8.05525109e-03
      3.32067251e-01 3.32067251e-01 2.01970369e-01 1.45481117e-02
      7.96212698e-04 5.80543047e-03 2.52713710e-02 9.65072215e-02
      3.05968896e-02 1.19287789e-01 1.07124068e-01 3.63168009e-02
      2.74291798e-03 5.01341303e-04 5.44330105e-02 2.08372399e-01
      3.37407917e-01 2.41703078e-01 6.32417873e-02 4.94115381e-03
      6.92254445e-03 1.03187606e-01 1.62193868e-02 1.92188583e-02
      3.10819652e-02 1.28897235e-01 2.87785437e-02 3.37407917e-01
      3.37407917e-01 3.37407917e-01 7.42690265e-02 6.71201274e-02
      1.90950319e-01 2.16553822e-01 3.37407917e-01 2.26989955e-01
      1.64874420e-01 2.20970288e-01 1.72523364e-01 1.07541840e-04
      1.20598364e-04 6.13353625e-02 2.13026091e-01 3.93392891e-01
      2.49284834e-01 6.56614155e-02 2.54824517e-05 9.95492956e-05 0. 0.
      1.16161238e-02 1.53010502e-01 3.93392891e-01 2.09154487e-01
      2.19532643e-02 3.14816786e-03 0. 2.92145293e-02 4.64735329e-02
      2.06590056e-01 2.07466945e-01 3.93392891e-01 2.38434583e-01
      1.12162801e-02 2.82394662e-02 4.95738350e-02 5.71473176e-03 0.
      3.78186558e-03 4.19411622e-02 3.93392891e-01 1.96857616e-01
      1.76963117e-02 5.75732663e-02 2.24279705e-02 8.09376710e-04
      1.61521067e-03 1.93658378e-02 1.93113700e-01 3.31552505e-01
      2.52737790e-01 3.56741957e-02 7.94606935e-03 5.52675338e-04
      1.13593917e-02 4.72579896e-02 4.08742912e-02 7.81171173e-02
      3.31552505e-01 9.51360092e-02 1.91626679e-02 6.63845567e-03
      4.12184000e-03 9.34151113e-02 4.51440364e-02 1.60771199e-02
      5.65915518e-02 3.31552505e-01 2.44941458e-01 2.32624300e-02
      1.20011598e-01 1.21539801e-01 2.62298554e-01 3.31552505e-01
      3.31552505e-01 2.63082366e-02 3.31552505e-01 9.38180089e-02
      1.03949411e-02 8.12004656e-02 1.60290316e-01 2.82354057e-02
      1.84295461e-01 1.16849400e-01 6.33487070e-04 1.59703139e-02
      1.21233165e-02 2.58174352e-03 6.73985807e-04 6.94433320e-03
      7.66514167e-02 3.70992482e-01 3.69450390e-01 2.94716582e-02
      1.46477193e-01 1.63033918e-01 1.18728071e-01 1.05984202e-02
      2.18439754e-02 1.47801280e-01 3.70992482e-01 3.70992482e-01
      3.36025172e-04 2.54277177e-02 4.27944615e-04 5.82073582e-04
      4.44379839e-04 3.16845067e-02 1.68268874e-01 3.70992482e-01
      3.70992482e-01 6.87815854e-03 1.96042340e-02 2.70163757e-03
      6.32368820e-03 1.13774184e-03 3.15063000e-02</_>
    <_>
      2.43370056e-01 2.99147695e-01 2.99147695e-01 1.95459016e-02
      2.05929875e-02 7.54539343e-03 9.59135767e-04 2.46715994e-04
      4.08272520e-02 2.92062014e-01 2.99147695e-01 2.99147695e-01
      4.41171089e-03 7.20732752e-03 1.29008188e-03 4.44728503e-04
      2.28490258e-04 6.31450117e-02 1.43659055e-01 2.99147695e-01
      2.99147695e-01 1.04807802e-01 2.35520288e-01 1.96640521e-01
      1.55947814e-02 3.31548479e-04 3.97644676e-02 1.34515807e-01
      2.99147695e-01 2.59588718e-01 1.70479976e-02 4.80877794e-02
      3.83725762e-02 3.63592152e-03 1.39836280e-04 4.80688959e-02
      2.71818876e-01 3.26617926e-01 3.26617926e-01 4.76019643e-02
      1.35014459e-01 2.77903993e-02 1.62902903e-02 8.12991057e-03
      8.28643292e-02 1.98925748e-01 2.11197212e-01 8.62417668e-02
      2.73679405e-01 3.26617926e-01 2.07288951e-01 7.29439631e-02
      4.15382981e-02 7.84593746e-02 4.96515855e-02 1.23487592e-01
      1.26177624e-01 8.28792155e-02 1.52717695e-01 4.04490381e-02
      6.52120076e-03 7.30086525e-04 2.02881396e-02 5.16152242e-03
      9.64947138e-03 4.41032462e-02 3.26617926e-01 3.26617926e-01
      2.62922972e-01 3.44598219e-02 5.65343304e-04 2.44153966e-03
      8.29301924e-02 1.74609572e-02 2.09583924e-03 2.55892187e-01
      3.22979063e-01 2.06966877e-01 5.43868616e-02 3.49930525e-02
      4.12952974e-02 3.13543789e-02 3.17793526e-02 1.17797427e-01
      2.23126203e-01 3.22979063e-01 1.27404958e-01 8.47591460e-03
      1.37530849e-03 2.96344068e-02 2.96067650e-04 4.91924584e-04
      2.26669572e-02 3.22979063e-01 3.22979063e-01 2.43872121e-01
      2.85842437e-02 0. 2.65697279e-04 3.84762898e-05 3.04044632e-04
      3.44419330e-02 3.22979063e-01 3.22979063e-01 3.22979063e-01
      1.85555276e-02 0. 3.84762898e-05 1.09151788e-01 6.67645708e-02
      2.13735208e-01 2.76075363e-01 2.93575943e-01 1.63243249e-01
      5.51093593e-02 6.83344901e-02 7.62831420e-02 1.65001154e-01
      4.70898561e-02 1.25066772e-01 1.06119588e-01 2.19726488e-01
      6.80136383e-02 2.93575943e-01 2.93575943e-01 2.10096285e-01
      1.09873235e-03 1.42991950e-03 5.47359996e-02 2.93575943e-01
      2.93575943e-01 2.93575943e-01 2.60277335e-02 3.45388055e-03
      1.78836100e-03 5.76437544e-03 1.94164622e-03 2.64173076e-02
      1.84669718e-01 2.34236151e-01 1.79866746e-01 9.83279049e-02
      1.09164588e-01 2.78166477e-02 4.87488918e-02 8.37309053e-04
      6.67528308e-04 5.32902079e-04 1.24875139e-02 5.73802320e-03
      3.18051904e-01 3.18051904e-01 1.91990137e-01 6.15556724e-02
      3.87846958e-04 6.23413362e-04 3.60920420e-03 2.53416058e-02
      5.07723466e-02 3.18051904e-01 3.18051904e-01 2.44824499e-01
      1.05329305e-02 1.49354374e-03 3.93558387e-03 1.33900829e-02
      2.48274934e-02 2.51538260e-03 2.40797222e-01 2.23084182e-01
      1.03596821e-01 4.89632860e-02 1.03717735e-02 3.29585187e-02
      1.93859503e-01 2.85940915e-01 7.62905553e-02 3.18051904e-01
      3.18051904e-01 1.87944427e-01 4.62396927e-02 1.14010923e-01
      1.21950723e-01 3.22777063e-01 3.22777063e-01 3.22777063e-01
      2.00308263e-01 8.51021789e-04 2.50836536e-02 1.93293560e-02
      5.70599139e-02 4.02166434e-02 8.05285126e-02 1.67781070e-01
      1.09395593e-01 5.49168810e-02 1.58510200e-04 1.16110062e-02
      1.26788113e-02 4.45352925e-04 6.82783639e-03 3.22777063e-01
      3.22777063e-01 3.22777063e-01 3.13454449e-01 8.93285905e-04
      1.27351768e-02 4.12135007e-04 1.26476632e-04 2.67872587e-03
      1.40123472e-01 2.97148883e-01 1.74019367e-01 9.51619819e-02
      1.92660795e-04 3.96216172e-04 4.91678016e-03 5.33720339e-03
      2.33191531e-02 1.15668967e-01 2.14184433e-01 7.03603253e-02
      3.63070937e-03 2.78495951e-04 4.57296148e-03 1.84155174e-03
      4.94867470e-03 6.53262734e-02 3.80971342e-01 3.80971342e-01
      3.11792791e-01 1.26717817e-02 1.89383602e-04 1.72684400e-03
      1.58329029e-03 1.91764673e-03 1.20724691e-02 1.69086933e-01
      3.03019941e-01 8.30433220e-02 2.77510937e-03 2.47362070e-04
      1.38486247e-03 1.60406309e-03 2.95886374e-03 3.50013748e-02
      3.80971342e-01 3.80971342e-01 3.46982986e-01 4.81325341e-03
      1.12437316e-04 1.38438551e-03 3.90849949e-04 1.21585547e-03
      2.57489607e-02 3.13323408e-01 3.13323408e-01 1.65793747e-01
      6.01284299e-03 0. 3.82582191e-04 6.63881219e-05 0. 3.76393236e-02
      3.13323408e-01 3.13323408e-01 2.47514367e-01 5.55018848e-03 0.
      6.63881219e-05 3.74570169e-04 6.98428310e-04 1.37940776e-02
      3.13323408e-01 3.13323408e-01 1.76184848e-01 1.32024230e-03 0.
      3.38743441e-04 3.46572907e-03 4.42861905e-03 7.23336563e-02
      3.13323408e-01 3.13323408e-01 2.89986700e-01 2.74479925e-03
      1.64477678e-05 1.96331646e-04 8.18210188e-04 3.69930058e-04
      6.69138953e-02 3.43091816e-01 3.43091816e-01 3.43091816e-01
      1.19282519e-02 1.51764601e-04 7.62957148e-04 3.05438181e-03
      1.38088060e-03 2.48699840e-02 2.44347408e-01 2.63019145e-01
      1.58327058e-01 6.15760824e-03 1.10902567e-03 5.10640303e-03
      9.02105402e-03 1.00532360e-02 9.02158916e-02 3.43091816e-01
      3.43091816e-01 3.43091816e-01 7.25333160e-03 3.92719638e-04
      1.63626031e-03 8.79093725e-03 5.12609957e-03 2.01351866e-02
      2.18616650e-01 2.50789076e-01 1.06712006e-01 6.07920624e-03
      1.70388271e-03 5.51971188e-03 3.56008951e-03 8.36031511e-03
      2.77528279e-02 9.94069949e-02 1.17623135e-01 2.37543345e-03
      2.63340063e-02 3.30044776e-02 2.38093939e-02 2.58209407e-02
      7.18750954e-02 2.20215216e-01 3.87201309e-01 3.87201309e-01
      4.58665565e-02 1.16630077e-01 1.23726845e-01 5.54339215e-02
      2.99372058e-03 5.68340998e-03 7.33953416e-02 3.16104382e-01
      2.96562910e-01 9.37199965e-03 2.14485568e-03 1.56072655e-03
      3.13709583e-03 3.16875465e-02 5.13736717e-02 2.88003862e-01
      3.87201309e-01 3.87201309e-01 1.98909119e-02 1.15951221e-03
      5.44582377e-04 2.64762286e-02 4.06269077e-03 5.63785841e-04
      3.31097818e-03 2.24058300e-01 3.45674604e-01 3.45674604e-01
      1.59165382e-01 1.71542953e-04 4.06269077e-03 1.20435888e-03
      4.18954151e-04 1.99625851e-03 7.71222636e-02 3.00720960e-01
      1.81200147e-01 6.81002438e-02 8.90299198e-05 1.20435888e-03
      1.33064424e-03 5.27951634e-04 5.62371314e-03 1.95362359e-01
      3.45674604e-01 3.45674604e-01 1.80025831e-01 8.60241998e-04
      1.46152929e-03 3.42926197e-03 1.78658077e-03 6.33041142e-03
      1.01296820e-01 3.45674604e-01 3.11995268e-01 1.06657527e-01
      4.39460069e-04 2.63585965e-03 1.12414465e-03 5.39303408e-04
      7.32461922e-03 2.55144626e-01 2.50809163e-01 6.42293394e-02
      1.14513410e-03 1.97671412e-04 1.07163994e-03 3.32664233e-04
      3.86839849e-04 1.75642502e-02 3.44632059e-01 3.44632059e-01
      1.91694930e-01 2.72542145e-03 1.66491431e-04 2.65158335e-04
      3.35951825e-03 2.40136799e-03 7.75758363e-03 2.50559747e-01
      3.44632059e-01 2.27328748e-01 2.22585909e-03 5.77764411e-04
      2.38221232e-03 1.04816561e-03 1.26013637e-03 1.00014312e-02
      3.44632059e-01 3.44632059e-01 3.44632059e-01 5.35540050e-03
      6.69600966e-04 2.42957787e-04 3.57296740e-05 6.06179492e-05
      6.61295094e-03 3.22347641e-01 3.22347641e-01 8.39259624e-02
      1.65955431e-03 1.08636450e-04 2.31689864e-05 3.27752484e-03
      4.22054902e-03 2.99781412e-02 3.22347641e-01 3.22347641e-01
      3.22347641e-01 1.18560379e-03 8.05767268e-05 1.61733726e-04
      9.63272643e-04 8.25211348e-04 2.96659302e-03 2.49478355e-01
      3.22347641e-01 2.11004868e-01 3.91699094e-03 5.44027309e-04 0.
      4.40202595e-04 3.36384051e-04 7.65772420e-04 3.22347641e-01
      3.22347641e-01 2.25181699e-01 3.40436964e-04 9.51401089e-05
      1.68265018e-04 8.71935207e-03 9.58302245e-03 3.55575830e-02
      3.60943794e-01 3.60943794e-01 3.60943794e-01 4.01866063e-03
      6.51789538e-04 1.64475455e-03 7.89708458e-03 4.79589682e-03
      8.80332105e-03 1.22459181e-01 2.23458856e-01 1.04408301e-01
      5.30729163e-03 1.49613409e-03 4.71025473e-03 1.85803813e-03
      7.79408670e-04 1.68536021e-03 3.60943794e-01 3.60943794e-01
      2.87166357e-01 1.75539195e-03 6.33705291e-04 1.40041451e-03
      4.03284887e-03 7.48952269e-04 1.39672989e-02 2.23622382e-01
      3.60943794e-01 6.67518303e-02 5.35340328e-03 2.84742401e-03
      4.97626932e-03 1.77564379e-03 4.86191711e-04 8.78164247e-02
      3.43254089e-01 2.08000958e-01 3.88542493e-03 1.74304075e-03
      6.42680621e-04 1.80635205e-03 1.06841372e-02 4.43063880e-04
      2.00568378e-01 3.43254089e-01 3.43254089e-01 2.19273884e-02
      7.41394062e-04 2.62729387e-04 1.06912246e-02 1.50247279e-03
      2.88016163e-04 1.17067166e-01 3.43254089e-01 3.43254089e-01
      5.47066331e-03 2.47097015e-03 1.16233784e-03 2.19538645e-03
      2.29323632e-03 2.27830038e-04 2.56432921e-01 3.43254089e-01
      3.43254089e-01 1.86595265e-02 1.28883217e-03 1.62357013e-04
      2.33395095e-03 3.89629602e-02 6.04633894e-03 4.10994329e-02
      1.59891605e-01 3.11794668e-01 3.11794668e-01 9.25890207e-02
      1.93437189e-02 4.46117558e-02 1.54413089e-01 9.92323924e-03
      1.10007739e-02 7.25310966e-02 2.84259588e-01 1.76869392e-01
      6.87328577e-02 4.28567454e-02 2.20765948e-01 2.21229091e-01
      1.45537525e-01 1.20299883e-01 1.63855836e-01 2.89354175e-01
      1.51379988e-01 1.31429896e-01 7.95236230e-02 2.27153391e-01
      3.11794668e-01 1.32002637e-01 2.10865811e-02 4.09768224e-02
      1.31088525e-01 7.65545219e-02 1.02687940e-01 1.58573523e-01
      3.11794668e-01 1.59098685e-01 3.71617824e-02 3.54076661e-02
      1.05406910e-01 1.98882714e-01 9.83415172e-02 4.74575860e-03
      2.29122061e-02 2.01609254e-01 6.76166713e-02 3.86547819e-02
      6.94682598e-02 2.71311581e-01 3.42886865e-01 2.51286596e-01
      1.72459369e-03 1.89715868e-03 6.56190962e-02 3.42886865e-01
      1.05241157e-01 6.07221723e-02 5.36041036e-02 8.00942630e-02
      1.34940874e-02 5.79145132e-03 9.80109200e-02 3.42886865e-01
      3.42886865e-01 8.81737620e-02 1.31605744e-01 1.38916835e-01
      2.08031371e-01 2.94777863e-02 3.69031157e-04 6.97766617e-02
      3.42886865e-01 1.04785021e-02 8.98095872e-03 2.62994505e-02
      1.21348307e-01 2.50704080e-01 1.11845553e-01 1.23645680e-03
      7.21585064e-04 7.48067442e-03 4.21814285e-02 5.73529505e-05
      1.26605912e-04 3.36923838e-01 3.52709740e-01 1.24174923e-01
      4.05371785e-02 2.62779407e-02 4.58854809e-02 3.52709740e-01
      3.81014273e-02 5.17059751e-02 6.23972639e-02 1.20392270e-01
      1.34306187e-02 2.10484519e-04 4.35447991e-02 3.52709740e-01
      3.52709740e-01 6.86708838e-02 1.63241726e-04 1.47746131e-01
      2.53016680e-01 1.31902337e-01 8.70607272e-02 9.02370214e-02
      3.52709740e-01 9.03325230e-02 9.77072050e-04 4.23454883e-04
      2.71889895e-01 3.64582121e-01 9.74930748e-02 3.22555825e-02
      2.65733507e-02 1.35163218e-01 1.92886963e-01 2.88340114e-02
      3.61263081e-02 1.37739882e-01 1.83138281e-01 1.97691824e-02
      6.85923453e-03 8.46493058e-03 2.04137921e-01 3.64582121e-01
      2.76319943e-02 6.48401547e-05 1.11422598e-01 1.48576856e-01
      9.33500454e-02 6.84442893e-02 7.52171874e-02 3.64582121e-01
      3.64582121e-01 1.20992728e-01 7.72882551e-02 8.15407559e-02
      5.78581057e-02 1.60977282e-02 1.41485166e-02 2.71476470e-02
      3.64582121e-01 1.19388618e-01 3.31489630e-02 1.03820555e-01
      2.97572464e-01 2.97572464e-01 6.76615909e-03 1.49034895e-03
      1.02056412e-03 6.76894709e-02 1.25522511e-02 6.42181467e-03
      1.04370534e-01 2.97572464e-01 2.97572464e-01 4.75959145e-02
      3.35654765e-02 1.57030081e-04 5.42807719e-03 2.97572464e-01
      1.23662658e-01 1.74137712e-01 2.15307042e-01 1.93386614e-01
      1.04848668e-02 1.08372895e-02 3.11990213e-02 2.97572464e-01
      6.66429996e-02 3.41112092e-02 8.77036452e-02 2.97572464e-01
      2.97572464e-01 2.23387346e-01 2.04110682e-01 2.20743027e-02
      8.62333104e-02 1.72381058e-01 1.54111847e-01 1.08460344e-01
      1.00786150e-01 2.46607125e-01 1.22654542e-01 1.73015565e-01
      1.40210584e-01 1.83503002e-01 2.63949245e-01 1.36604592e-01
      7.30902180e-02 4.98072132e-02 1.41041577e-01 1.00294136e-01
      1.27384812e-01 1.59798533e-01 2.63949245e-01 6.03447966e-02
      2.87024677e-02 1.64384782e-01 1.25965536e-01 2.63949245e-01
      2.46004969e-01 1.48319244e-01 1.37836486e-01 1.26248419e-01
      2.63949245e-01 3.48123759e-02 1.75345048e-01 1.16833933e-01
      2.36960888e-01 1.41969845e-01 1.06289111e-01 1.35219589e-01
      2.63949245e-01 3.48911762e-01 5.52267171e-02 2.20896620e-02
      1.02009866e-02 2.54298635e-02 1.74460914e-02 7.88732804e-03
      7.35329688e-02 3.48911762e-01 3.48911762e-01 2.87802611e-02
      3.30789834e-02 1.56012671e-02 9.55380034e-03 0. 6.67070663e-06
      8.19742754e-02 3.48911762e-01 3.48911762e-01 7.61526497e-03
      2.02934202e-02 9.60443635e-03 4.32787910e-02 2.20338516e-02
      7.46153435e-03 1.73513815e-02 3.48911762e-01 3.48911762e-01
      1.33669213e-03 7.82809046e-04 7.45234895e-04 1.53088961e-02 0.
      1.77103706e-04 6.67760102e-03 3.48911762e-01 3.51551235e-01
      1.88895967e-02 8.68867245e-03 4.62749973e-03 4.75171721e-03
      1.98779962e-05 0. 3.30790915e-02 3.51551235e-01 3.51551235e-01
      5.39235137e-02 1.04824379e-04 2.41236576e-05 1.50716389e-02
      1.78048331e-02 1.49814347e-02 3.53423469e-02 3.51551235e-01
      3.51551235e-01 4.79622930e-03 1.38037500e-03 1.28940342e-03
      1.33395949e-02 0. 0. 1.49065955e-02 3.51551235e-01 3.51551235e-01
      8.88832472e-03 7.32350221e-04 2.97554652e-04 2.02222168e-02 0. 0.
      1.92404781e-02 3.51551235e-01 3.29082221e-01 2.97823846e-02
      5.60699755e-06 0. 1.17347687e-02 1.78094860e-02 1.71472989e-02
      3.41879800e-02 3.29082221e-01 3.29082221e-01 9.83961076e-02
      1.31203771e-01 8.29532519e-02 8.21505040e-02 5.13978451e-02
      4.82204854e-02 1.64755397e-02 3.29082221e-01 3.29082221e-01
      2.86245206e-03 8.41049623e-05 0. 1.15276249e-02 7.63085700e-05 0.
      3.63569730e-03 3.29082221e-01 3.29082221e-01 6.79614469e-02
      1.22373931e-01 9.27428007e-02 1.26741350e-01 1.46131232e-01
      1.26545787e-01 8.24356161e-04 3.29082221e-01 2.69419372e-01
      1.25760615e-01 2.37638801e-01 1.43232703e-01 1.77394196e-01
      7.37250671e-02 8.36555883e-02 3.25152911e-02 2.69419372e-01
      5.11742011e-02 6.03117719e-02 1.06980614e-01 2.69419372e-01
      2.69419372e-01 1.46360368e-01 1.25440165e-01 2.34165527e-02
      7.80630335e-02 2.11094245e-01 1.29101202e-01 2.22842872e-01
      1.83784679e-01 2.41484448e-01 2.26322621e-01 2.21082702e-01
      2.79012742e-03 1.29919603e-01 1.94216203e-02 6.57173023e-02
      1.66858718e-01 2.69419372e-01 2.69419372e-01 7.40958825e-02
      6.67882860e-02 3.13794869e-03 7.78158288e-03</_>
    <_>
      2.45095983e-01 7.44716823e-02 2.22846955e-01 0. 5.06195068e-01
      1.93343326e-01 1.02510855e-01 5.06195068e-01 3.25780898e-01
      6.82055056e-02 4.13257778e-02 1.23662047e-01 0. 3.35742950e-01
      4.28529456e-02 2.09500566e-02 5.91163747e-02 8.04551020e-02
      9.58247855e-03 0. 0. 0. 0. 0. 0. 0. 9.58247855e-03 3.39368209e-02
      1.26364408e-02 3.78130525e-02 0. 2.45424911e-01 4.25856151e-02
      2.08193623e-02 0. 3.39368209e-02 8.81384499e-03 1.14248917e-02
      9.25807469e-03 2.97361296e-02 8.71814042e-02 4.87504862e-02
      1.95119698e-02 2.39641708e-03 7.58180488e-03 2.76853800e-01
      2.39893422e-01 1.51872262e-01 1.83433935e-01 2.76853800e-01
      2.76853800e-01 2.76853800e-01 1.86880350e-01 9.92165357e-02
      4.82388819e-03 1.76850185e-02 1.26391212e-02 2.68955529e-02
      1.08311504e-01 5.25931790e-02 2.31827423e-02 1.47689944e-02
      4.95330105e-03 1.52285889e-01 2.76853800e-01 2.36756235e-01
      1.84908211e-01 2.76853800e-01 2.76853800e-01 2.76853800e-01
      2.76853800e-01 8.27004462e-02 2.15055585e-01 1.21245764e-01
      6.01585731e-02 6.65493831e-02 2.15055585e-01 1.33610666e-01
      1.46207631e-01 1.13182642e-01 1.00206017e-01 2.15055585e-01
      1.59358129e-01 2.15055585e-01 1.30626947e-01 2.15055585e-01
      1.66198477e-01 8.65611359e-02 6.87330365e-02 2.15055585e-01
      1.36362910e-01 1.61301017e-01 1.17539778e-01 1.04870975e-01
      2.15055585e-01 1.69177353e-01 1.88776761e-01 1.76640391e-01
      8.16834494e-02 2.15055585e-01 2.01459289e-01 1.67972744e-01
      2.15055585e-01 1.68778405e-01 2.15055585e-01 1.99294165e-01
      2.11657524e-01 1.21957161e-01 1.73228055e-01 2.32185215e-01
      2.49907255e-01 2.49907255e-01 2.49907255e-01 2.49907255e-01
      2.20527202e-01 1.09985545e-01 2.49907255e-01 7.79095618e-03
      1.88503489e-02 6.44909441e-02 4.21216860e-02 9.80111510e-02
      2.98752841e-02 4.07983139e-02 8.39447882e-03 1.65809933e-02
      2.49907255e-01 2.33328655e-01 2.49907255e-01 2.49907255e-01
      2.49907255e-01 2.49907255e-01 2.49907255e-01 2.49907255e-01
      1.30242795e-01 1.98762435e-02 1.02929370e-02 3.06288134e-02
      2.48769894e-02 9.22738090e-02 2.39494778e-02 2.77973805e-02
      3.30979712e-02 1.15836365e-02 2.19948575e-01 0. 0. 0.
      7.79972017e-01 0. 0. 0. 2.19948575e-01 5.07573634e-02 0. 0. 0.
      2.71388829e-01 0. 0. 0. 5.07573634e-02 1.73696399e-01 0.
      9.77525953e-03 1.99950691e-02 3.73925477e-01 0. 3.37401554e-02
      1.12753958e-02 1.73696399e-01 2.37855501e-02 0. 0. 0.
      7.24314749e-02 0. 0. 0. 2.37855501e-02 0. 0. 0. 0. 0. 0. 0. 0. 0.
      8.67580622e-02 1.28846513e-02 6.57776445e-02 5.56818619e-02
      6.20480955e-01 9.68878157e-03 4.73667542e-03 0. 8.67580622e-02 0.
      0. 0. 0. 0. 0. 0. 0. 0. 1.85949057e-01 0. 3.49995308e-02
      7.15909675e-02 7.10100889e-01 0. 5.10780998e-02 3.61644924e-02
      1.89905763e-01 7.58578535e-03 1.06247617e-02 1.17377294e-02
      1.53493099e-02 7.23556578e-02 2.33845692e-02 1.97653249e-02
      1.08447103e-02 4.73592523e-03 1.70388713e-01 2.57475495e-01
      2.39731967e-01 1.64232329e-01 2.63870567e-01 2.08804682e-01
      2.63870567e-01 2.63870567e-01 1.09931678e-01 1.88266523e-02
      6.89012185e-03 1.92041919e-02 2.86156945e-02 7.38731697e-02
      3.19828540e-02 1.75262559e-02 1.63520966e-02 1.98542587e-02
      2.63870567e-01 2.38259718e-01 2.39502653e-01 1.93043873e-01
      2.63870567e-01 1.93900436e-01 2.63870567e-01 2.63870567e-01
      2.63870567e-01 1.29995599e-01 1.43972203e-01 1.31853059e-01
      1.03858143e-01 1.59159034e-01 1.21081330e-01 1.92564309e-01
      1.89000502e-01 1.03645585e-01 2.16066316e-01 1.68216258e-01
      1.16182052e-01 1.51263922e-01 1.53772578e-01 7.12738931e-02
      2.16066316e-01 2.16066316e-01 1.51266456e-01 2.16066316e-01
      1.21274143e-01 1.10648364e-01 9.80051532e-02 2.16066316e-01
      8.07181448e-02 2.16066316e-01 2.16066316e-01 1.67001426e-01
      1.57596260e-01 2.01554760e-01 2.16066316e-01 1.39807537e-01
      2.16066316e-01 8.49324837e-02 2.16066316e-01 2.16066316e-01
      1.24537535e-01 2.71293074e-01 2.22175226e-01 1.29391789e-01
      2.04899266e-01 2.71293074e-01 8.38865340e-02 2.71293074e-01
      2.71293074e-01 1.83219850e-01 4.42661084e-02 9.41028167e-03
      4.27241065e-03 2.24011708e-02 1.28917038e-01 1.05087906e-02
      3.17353681e-02 5.84829636e-02 2.14833710e-02 2.04171658e-01
      2.71293074e-01 2.71293074e-01 2.52060324e-01 2.71293074e-01
      1.27980441e-01 2.71293074e-01 2.71293074e-01 1.29973531e-01
      3.11487298e-02 2.66541913e-02 2.06095763e-02 4.18361463e-02
      1.24770023e-01 1.53512051e-02 3.65185179e-02 4.71893251e-02
      1.72144305e-02 2.68790752e-01 1.10708997e-02 5.64101040e-02
      4.76225540e-02 3.02838326e-01 0. 1.22036576e-01 4.07825746e-02
      2.68790752e-01 1.07587697e-02 0. 0. 0. 4.09913324e-02 0. 0. 0.
      1.07587697e-02 4.76990014e-01 2.81454865e-02 1.02329880e-01
      3.70397642e-02 4.92005080e-01 0. 1.33399650e-01 4.45798971e-02
      4.76990014e-01 1.84736755e-02 0. 0. 0. 6.80349916e-02 0. 0. 0.
      1.84736755e-02 0. 0. 0. 0. 0. 0. 0. 0. 0. 8.81518796e-03 0.
      3.72393231e-04 7.61724252e-04 3.41815464e-02 0. 4.01571859e-03
      8.07007495e-03 1.02093266e-02 4.98184830e-01 0. 0. 0. 0. 0. 0. 0.
      4.98184830e-01 4.98184830e-01 2.63374974e-03 7.88118318e-03 0.
      2.72410773e-02 0. 2.67714611e-04 5.32242702e-03 4.98184830e-01
      1.78653877e-02 9.78076085e-03 2.06941832e-02 3.08956001e-02
      7.14038238e-02 4.71957438e-02 1.08911246e-02 2.18297672e-02
      2.55023204e-02 2.61391461e-01 1.69558629e-01 2.07099855e-01
      1.91768527e-01 2.61391461e-01 2.29212597e-01 2.61391461e-01
      2.61391461e-01 2.58917481e-01 3.63950022e-02 4.46158974e-03
      1.61167644e-02 2.29532961e-02 8.26248527e-02 5.04104495e-02
      1.91153884e-02 1.14834905e-02 3.57862934e-02 2.61391461e-01
      1.11003868e-01 2.60643542e-01 1.83909565e-01 2.61391461e-01
      2.61391461e-01 2.61391461e-01 2.61391461e-01 1.29384115e-01
      2.30361298e-01 8.13110173e-02 8.92480537e-02 9.59105566e-02
      2.30361298e-01 7.57339299e-02 2.12804049e-01 2.30361298e-01
      1.68184876e-01 1.54152244e-01 2.19307899e-01 1.49717450e-01
      7.22300038e-02 2.30361298e-01 9.58858356e-02 2.28245735e-01
      2.30361298e-01 9.37531739e-02 1.77221358e-01 7.08342716e-02
      1.22990385e-01 8.28547478e-02 2.30361298e-01 1.79137379e-01
      2.24292383e-01 1.56149283e-01 9.32351202e-02 1.16412856e-01
      1.30974829e-01 1.28118545e-01 1.06071465e-01 2.30361298e-01
      9.10228640e-02 2.20177621e-01 2.30361298e-01 1.07185654e-01
      1.11594722e-01 2.77261317e-01 2.59126157e-01 1.15259588e-01
      2.77261317e-01 1.45753011e-01 2.77261317e-01 2.77261317e-01
      6.63369000e-02 6.85398513e-03 4.06587161e-02 2.84043178e-02
      2.16296203e-02 1.18962370e-01 1.75602492e-02 4.17883173e-02
      4.76494804e-02 7.17612775e-03 1.03392102e-01 2.28399917e-01
      2.77261317e-01 2.65052497e-01 2.77261317e-01 2.30439976e-01
      2.77261317e-01 2.77261317e-01 1.06178097e-01 3.13472375e-02
      2.76014954e-02 4.74327356e-02 6.04498759e-02 1.55280814e-01
      6.35406598e-02 5.60118109e-02 6.71909228e-02 3.56456228e-02
      2.15274561e-02 3.70457093e-03 1.10854609e-02 0. 5.99314012e-02 0.
      1.36649061e-03 4.56657697e-04 2.15274561e-02 7.74202810e-04 0. 0.
      0. 2.86447327e-03 0. 0. 0. 7.74202810e-04 4.96174097e-01
      1.09116323e-02 1.31712547e-02 5.24519617e-03 7.02089667e-02 0.
      8.54498055e-03 1.57689527e-02 4.96174097e-01 4.96174097e-01 0. 0.
      0. 6.19475497e-03 0. 1.29729917e-03 3.41354264e-03 4.96174097e-01
      2.67738611e-01 8.99647996e-02 1.24379499e-02 4.64666495e-03
      7.29627500e-04 2.22244969e-04 0. 7.44612282e-03 2.96567321e-01
      3.22836101e-01 2.78538428e-02 3.70087801e-04 0. 8.54327693e-04
      1.01020436e-04 0. 1.29963495e-02 3.65542054e-01 3.65542054e-01
      1.50041014e-01 6.35308027e-02 3.77325900e-02 5.97747639e-02
      6.07545152e-02 8.85299146e-02 3.97726111e-02 3.65542054e-01
      3.65542054e-01 4.52924147e-02 1.41638489e-02 4.44188109e-03
      1.01796323e-02 3.84718440e-02 7.28587210e-02 3.59521732e-02
      3.65542054e-01 3.13917518e-01 2.71881893e-02 3.66559508e-03
      6.65282691e-03 2.52363961e-02 1.12018064e-02 4.95600095e-03
      5.74634690e-03 2.73451447e-01 2.70992160e-01 7.44077638e-02
      9.61870700e-02 6.60276860e-02 2.38975406e-01 1.66309178e-01
      1.29846364e-01 4.45622094e-02 2.73956180e-01 3.64736527e-01
      3.41697894e-02 1.13848958e-03 1.52653456e-03 8.56201444e-03
      5.14382822e-03 3.95603571e-03 6.97482796e-03 3.64736527e-01
      3.64736527e-01 3.79149280e-02 4.30858731e-02 1.60152726e-02
      9.71534550e-02 4.77752090e-02 3.77372578e-02 2.54706340e-03
      3.64736527e-01 1.34326711e-01 9.53615904e-02 1.20789111e-01
      6.32956773e-02 3.25155735e-01 1.95719793e-01 1.53676987e-01
      6.41582310e-02 1.64482266e-01 6.40989542e-02 1.90991536e-02
      1.29259959e-01 1.48787647e-01 2.96721399e-01 8.78303051e-02
      1.38013557e-01 1.35501221e-01 1.48782820e-01 3.53293598e-01
      2.71247458e-02 6.13920167e-02 1.85806062e-02 1.36434630e-01
      6.75362870e-02 5.89659922e-02 1.55983807e-03 3.53293598e-01
      3.53293598e-01 5.75075485e-03 4.72958386e-02 6.82852790e-02
      1.08711794e-01 2.98834164e-02 4.50188443e-02 2.92161629e-02
      3.53293598e-01 1.14472553e-01 8.00893735e-03 1.26165420e-01
      1.54272392e-01 2.14292660e-01 9.39506814e-02 1.34162858e-01
      1.31065696e-01 2.53822923e-01 2.93748200e-01 7.71560743e-02
      2.52579730e-02 3.75308990e-02 6.28359988e-02 3.14287916e-02
      2.84189768e-02 3.39607298e-02 3.42133313e-01 3.67144793e-01
      1.14560714e-02 5.03724664e-02 6.92031011e-02 8.02803412e-02
      2.44799126e-02 4.67912219e-02 3.92388478e-02 3.67144793e-01
      3.67144793e-01 1.07574031e-01 1.19617833e-02 1.97768100e-02
      2.75715943e-02 7.22597819e-03 1.16740130e-02 1.96658429e-02
      3.67144793e-01 3.18159878e-01 9.49624702e-02 1.69627194e-04
      3.51041061e-04 1.38840708e-03 0. 5.58823871e-04 8.95095337e-03
      3.03994507e-01 3.40107530e-01 5.84512092e-02 2.83463633e-05
      1.20242854e-04 3.51544149e-04 7.55400251e-05 1.55232651e-02
      7.66244605e-02 3.40107530e-01 3.40107530e-01 1.50366306e-01
      2.16118377e-02 2.30620224e-02 2.81885434e-02 1.28071262e-02
      2.63356436e-02 3.18360515e-02 3.40107530e-01 3.40107530e-01
      1.34433016e-01 2.88805980e-02 5.05196676e-02 6.49141595e-02
      5.92915788e-02 9.83861536e-02 1.58597067e-01 3.40107530e-01
      2.58700103e-01 6.15719073e-02 6.28081337e-02 5.66112697e-02
      1.36762813e-01 1.94483921e-01 2.43529558e-01 8.57954547e-02
      1.77120656e-01 2.58700103e-01 4.04683687e-02 4.16796282e-02
      4.41978984e-02 6.33452311e-02 2.01315284e-01 2.07845613e-01
      5.48676364e-02 2.58700103e-01 1.14925392e-01 7.13113993e-02
      6.99072555e-02 1.22039415e-01 2.58700103e-01 2.37666979e-01
      2.33925521e-01 1.36132672e-01 1.02901660e-01 2.58700103e-01
      1.05534770e-01 8.05061981e-02 1.09659456e-01 1.32357046e-01
      2.52308309e-01 1.87156931e-01 1.00110777e-01 2.58700103e-01
      3.50230157e-01 1.19764321e-02 4.90820128e-03 8.49583093e-03
      2.09077820e-02 3.90535630e-02 2.07288116e-02 1.76431122e-03
      3.50230157e-01 3.50230157e-01 5.66175906e-03 6.39060233e-03
      4.30690736e-04 6.51702471e-03 1.50844455e-04 3.25785863e-04
      5.42970316e-04 3.50230157e-01 3.50230157e-01 4.41697724e-02
      1.22196199e-02 1.73150301e-02 4.21432592e-02 4.31082658e-02
      2.23221965e-02 3.14815305e-02 3.50230157e-01 3.50230157e-01
      6.34866655e-02 2.38358654e-04 8.74190955e-05 2.22539976e-02
      4.76457171e-05 5.49577562e-05 2.02733949e-02 3.50230157e-01
      3.47832590e-01 1.40165561e-03 6.56570541e-03 1.06376933e-03
      9.68758762e-03 6.95819035e-04 5.07199729e-04 8.46945040e-04
      3.47832590e-01 3.47832590e-01 1.51854460e-04 8.19977839e-04
      1.23153371e-03 1.07224695e-02 2.48556770e-03 3.89047596e-03
      3.48079414e-03 3.47832590e-01 3.47832590e-01 1.31865427e-01
      1.78845745e-04 1.20106663e-04 2.32823696e-02 2.16192144e-04
      1.05692554e-04 8.02301243e-03 3.47832590e-01 3.47832590e-01
      9.33743194e-02 1.29179985e-04 2.64234666e-04 3.42015848e-02
      1.68149447e-04 8.22053189e-05 2.11860798e-02 3.47832590e-01
      3.48708063e-01 7.47817149e-03 6.90899615e-05 3.97536147e-04
      7.70162744e-03 2.06978270e-03 5.92457736e-03 5.63909998e-03
      3.48708063e-01 3.48708063e-01 2.84414068e-02 5.28034405e-04
      1.12662893e-02 3.53594460e-02 7.08279526e-03 1.78472989e-03
      4.37215855e-03 3.48708063e-01 3.48708063e-01 3.44137475e-02
      2.87391103e-05 5.87851900e-05 2.26802658e-02 0. 0. 7.08508715e-02
      3.48708063e-01 3.48708063e-01 3.26548107e-02 4.59878379e-03
      5.45058772e-03 5.20580001e-02 1.01585304e-02 1.16208463e-03
      1.03158034e-01 3.48708063e-01 2.55649924e-01 7.88108483e-02
      6.93055317e-02 6.44237548e-02 1.99187979e-01 8.21719095e-02
      6.28986135e-02 3.02453842e-02 2.55649924e-01 2.55649924e-01
      1.40625387e-01 9.02663022e-02 1.13688484e-01 2.55649924e-01
      1.53226346e-01 1.37320831e-01 8.19414333e-02 2.55649924e-01
      2.55649924e-01 1.01428777e-01 1.35954887e-01 8.48368779e-02
      2.32630268e-01 1.38917133e-01 1.00252725e-01 3.38174812e-02
      2.55649924e-01 1.80516571e-01 1.29971951e-01 2.04813570e-01
      1.58190027e-01 2.55649924e-01 2.07604647e-01 1.43378302e-01
      2.69609578e-02 1.29671142e-01</_>
    <_>
      0. 0. 0. 0. 0. 0. 0. 0. 0. 0. 0. 0. 0. 0. 0. 0. 0. 0. 0. 0. 0. 0.
      0. 0. 0. 0. 0. 0. 0. 0. 0. 0. 0. 0. 0. 0. 1.05357245e-02
      1.37052964e-02 2.47283336e-02 2.85655539e-02 8.23902115e-02
      3.81968394e-02 1.69215836e-02 1.16311098e-02 7.05803791e-03
      1.43835962e-01 2.50788152e-01 2.50788152e-01 1.45918906e-01
      2.50788152e-01 2.50788152e-01 2.50788152e-01 2.44029790e-01
      1.82842761e-01 1.61664560e-02 1.77178662e-02 1.57964621e-02
      2.94156205e-02 1.14263766e-01 6.58768713e-02 1.88541450e-02
      1.47379804e-02 9.78203490e-03 2.49636471e-01 2.50788152e-01
      2.04296485e-01 1.90877452e-01 2.50788152e-01 2.50788152e-01
      2.50788152e-01 2.50788152e-01 2.50788152e-01 1.61291689e-01
      1.57709122e-01 1.46596298e-01 5.08101918e-02 2.27810487e-01
      1.74480423e-01 1.82922661e-01 1.47813886e-01 2.27810487e-01
      1.38939157e-01 8.48172829e-02 2.27810487e-01 1.28623724e-01
      2.27810487e-01 9.64787006e-02 1.82065621e-01 1.48139402e-01
      1.54299468e-01 2.12135181e-01 1.24103345e-01 9.89112481e-02
      8.69449899e-02 2.27810487e-01 1.56120911e-01 1.78103998e-01
      1.64673910e-01 2.27810487e-01 1.48750454e-01 1.09059729e-01
      2.27810487e-01 1.04907416e-01 2.27810487e-01 9.62466151e-02
      1.10839225e-01 1.39376968e-01 2.08851561e-01 9.78984237e-02
      1.32297084e-01 2.75208682e-01 2.30534047e-01 2.75208682e-01
      1.58231571e-01 2.75208682e-01 2.68531531e-01 6.26312345e-02
      1.22981770e-02 1.64481848e-02 9.03978869e-02 3.38437520e-02
      1.62377968e-01 3.51225697e-02 4.99235876e-02 4.52706218e-02
      9.73476376e-03 1.12811178e-01 1.82693705e-01 2.75208682e-01
      2.75208682e-01 2.75208682e-01 1.83822379e-01 2.53658444e-01
      2.75208682e-01 1.89404175e-01 6.37004012e-03 2.24055070e-02
      1.08792223e-01 8.55297446e-02 1.85138732e-01 3.80441733e-02
      5.26052155e-02 6.93720207e-02 2.61878893e-02 2.31575727e-01
      1.56683140e-02 4.68855724e-02 0. 6.23148322e-01 0. 3.73827480e-02
      7.55296424e-02 2.44637668e-01 0. 0. 0. 0. 0. 0. 0. 0. 0.
      1.87200323e-01 1.04455417e-03 3.12570482e-03 0. 6.23148322e-01
      4.34580594e-02 5.11214398e-02 1.07497178e-01 2.07406163e-01 0. 0.
      0. 0. 0. 0. 0. 0. 0. 0. 0. 0. 0. 0. 0. 0. 0. 0. 0. 0. 0. 0. 0. 0.
      0. 0. 0. 0. 0. 0. 0. 0. 0. 0. 0. 0. 0. 0. 0. 0. 0. 0. 0. 0. 0.
      9.05006658e-03 1.40754823e-02 2.81113964e-02 2.72787195e-02
      9.58162546e-02 4.19339314e-02 1.74975451e-02 1.57539733e-02
      1.55570433e-02 2.52851576e-01 2.11262792e-01 2.03241959e-01
      1.57640547e-01 2.57588536e-01 2.20938265e-01 2.57588536e-01
      2.57588536e-01 2.57588536e-01 8.61100759e-03 1.01533439e-02
      3.91110368e-02 2.60461252e-02 1.30960271e-01 2.91938875e-02
      4.38853912e-02 1.50197074e-02 1.53737310e-02 2.57588536e-01
      1.76240131e-01 2.57588536e-01 1.49950773e-01 2.57588536e-01
      1.76569447e-01 2.57588536e-01 2.35951379e-01 2.57588536e-01
      2.20723435e-01 9.44664404e-02 7.80784711e-02 7.52063990e-02
      2.50370353e-01 7.08797500e-02 1.51369616e-01 1.45437792e-01
      2.44525388e-01 2.33834773e-01 9.33367684e-02 1.76921979e-01
      1.01418406e-01 2.50370353e-01 8.58519599e-02 9.16551575e-02
      5.65526709e-02 2.33596712e-01 2.50370353e-01 8.62036496e-02
      9.83461887e-02 6.45639673e-02 2.50370353e-01 9.52807292e-02
      1.65626511e-01 1.15370959e-01 2.50370353e-01 2.50370353e-01
      7.83814341e-02 1.25167653e-01 1.32832691e-01 2.50370353e-01
      6.37751520e-02 1.11405514e-01 1.10446014e-01 2.50370353e-01
      2.14691013e-01 1.46670341e-01 2.53830671e-01 2.46668071e-01
      2.53830671e-01 1.92910895e-01 2.18376011e-01 1.25424936e-01
      2.41133839e-01 1.44477412e-02 1.67586487e-02 7.18140751e-02
      8.54146704e-02 1.35005608e-01 5.71708046e-02 5.39101064e-02
      3.13786939e-02 2.76155248e-02 2.53830671e-01 1.36468455e-01
      2.53830671e-01 2.53830671e-01 2.53830671e-01 1.52539551e-01
      2.52549678e-01 2.28984892e-01 2.53830671e-01 3.49188559e-02
      2.22822074e-02 9.33598056e-02 1.07431136e-01 1.68898180e-01
      6.51966780e-02 5.96456192e-02 4.94104140e-02 3.57222818e-02
      1.95629150e-01 2.62142010e-02 1.30356504e-02 2.20228452e-02
      5.91234565e-01 9.38166305e-02 6.05500825e-02 7.03860968e-02
      2.03509688e-01 0. 0. 0. 0. 0. 0. 0. 0. 0. 1.55234501e-01
      7.09646344e-02 1.05948903e-01 1.25138760e-01 6.41880929e-01
      2.01672658e-01 6.26235455e-02 8.88178274e-02 1.58335328e-01 0. 0.
      0. 0. 0. 0. 0. 0. 0. 0. 0. 0. 0. 0. 0. 0. 0. 0. 0. 0. 0. 0. 0. 0.
      0. 0. 0. 6.12094581e-01 7.04907393e-03 2.10935194e-02 0.
      5.59670217e-02 2.00553127e-02 7.76985660e-04 1.79268466e-03
      6.12094581e-01 3.12342525e-01 2.66147265e-03 7.96414074e-03 0.
      5.19554019e-02 4.96429987e-02 3.36693833e-03 3.94390617e-03
      3.71102244e-01 4.58017178e-03 6.73859939e-03 2.61035189e-02
      3.71305235e-02 9.97352824e-02 2.66350675e-02 3.27122845e-02
      9.91584081e-03 4.86703217e-03 1.82865322e-01 1.59106463e-01
      2.55532146e-01 2.51686066e-01 2.55532146e-01 2.24988788e-01
      2.55532146e-01 1.66397691e-01 2.29949549e-01 1.93005092e-02
      1.26154739e-02 2.81966347e-02 3.66703533e-02 1.11343689e-01
      3.56670134e-02 1.95633005e-02 2.16950588e-02 1.02807526e-02
      2.02077106e-01 2.44972438e-01 2.55532146e-01 2.45168582e-01
      2.55532146e-01 2.55532146e-01 2.55532146e-01 2.55532146e-01
      1.71924412e-01 1.94112405e-01 9.00018141e-02 1.47754103e-01
      9.59313363e-02 2.31749773e-01 1.39359862e-01 1.12621978e-01
      7.86484554e-02 2.31749773e-01 2.31749773e-01 5.93298227e-02
      1.00657448e-01 1.01881824e-01 2.31749773e-01 6.37470260e-02
      1.58338398e-01 1.85032725e-01 2.06708312e-01 1.69502333e-01
      1.35554776e-01 2.23586932e-01 9.73879024e-02 2.31749773e-01
      1.79706544e-01 1.69701055e-01 1.39078215e-01 1.77651346e-01
      1.78162083e-01 1.01411089e-01 2.21658558e-01 1.59443021e-01
      2.31749773e-01 9.16131586e-02 1.74240544e-01 1.67212829e-01
      1.68311939e-01 2.60961592e-01 1.24156788e-01 2.60961592e-01
      2.24619627e-01 2.60961592e-01 1.16902538e-01 2.60961592e-01
      2.60961592e-01 1.89147234e-01 4.10930216e-02 2.87199914e-02
      8.45249146e-02 6.72388375e-02 1.54015392e-01 4.49644960e-02
      5.43674044e-02 6.77354857e-02 3.42885554e-02 1.79902941e-01
      1.36934221e-01 2.60961592e-01 2.60961592e-01 2.60961592e-01
      1.72617629e-01 2.60961592e-01 2.60961592e-01 1.41349256e-01
      2.82205604e-02 1.87217388e-02 8.95743594e-02 5.66529259e-02
      1.73220813e-01 4.67919856e-02 5.44198640e-02 5.86125664e-02
      2.37742513e-02 1.25192702e-02 5.54795330e-03 2.02654395e-02
      2.20533125e-02 1.09761834e-01 2.11086776e-02 1.84219740e-02
      1.52529841e-02 1.39113348e-02 0. 0. 0. 0. 0. 0. 0. 0. 0.
      1.03655398e-01 8.60496145e-03 5.94042102e-03 6.98666461e-03
      1.46059543e-01 1.99538283e-02 2.51717996e-02 2.94907875e-02
      1.09466620e-01 6.80599868e-01 4.41010557e-02 0. 0. 5.24968840e-02
      2.69131623e-02 1.31574012e-02 2.66710687e-02 6.80599868e-01
      2.34398544e-01 5.86641133e-02 5.44431657e-02 3.00449133e-03
      2.20115739e-03 9.22877807e-04 6.40382245e-02 7.18326792e-02
      2.36383826e-01 3.23239237e-01 6.14861434e-04 2.03145246e-04 0.
      1.46817660e-03 2.08772300e-03 2.36805398e-02 2.51861829e-02
      3.60211939e-01 3.63273025e-01 1.40472725e-01 1.12754904e-01
      6.11654520e-02 8.46344084e-02 2.15882510e-02 1.69250131e-01
      1.45679146e-01 3.63273025e-01 3.63273025e-01 2.32058112e-02
      1.21029308e-02 1.01202689e-02 1.94645002e-02 1.09426752e-02
      8.31907317e-02 6.83437884e-02 3.63273025e-01 2.81566352e-01
      1.53721329e-02 8.60366225e-03 9.24301054e-03 5.60654365e-02
      1.12609249e-02 1.03546530e-02 1.35388244e-02 2.72042602e-01
      3.07721823e-01 1.39482319e-01 9.01254714e-02 1.11696541e-01
      2.10001230e-01 1.53904051e-01 1.21746652e-01 1.20496243e-01
      2.44891822e-01 3.60669971e-01 1.38896834e-02 6.09271182e-03
      4.34009917e-03 2.11576633e-02 4.32604272e-03 6.66205864e-03
      7.59193720e-03 3.60669971e-01 3.60669971e-01 8.38491023e-02
      3.08290813e-02 6.80485815e-02 8.67433921e-02 6.62983954e-02
      2.66864374e-02 3.02277058e-02 3.60669971e-01 2.44410858e-01
      1.17246814e-01 8.47730786e-02 1.09525874e-01 1.94674820e-01
      1.68520227e-01 1.20096900e-01 9.27774683e-02 1.96809009e-01
      1.90101817e-01 7.36657232e-02 1.80552170e-01 1.35977268e-01
      2.92521179e-01 5.27907424e-02 6.64495379e-02 1.31332442e-01
      2.43526742e-01 3.39936554e-01 6.55822605e-02 2.01457925e-02
      6.29008561e-02 8.03456828e-02 7.00151101e-02 1.82617921e-02
      1.72483958e-02 3.39936554e-01 3.39936554e-01 2.92862654e-02
      4.46669310e-02 3.25500667e-02 1.59670934e-01 1.09397266e-02
      1.10876961e-02 3.69815417e-02 3.39936554e-01 1.79946139e-01
      4.14850526e-02 1.67435780e-01 1.37169793e-01 2.28019997e-01
      4.92172241e-02 6.18145615e-02 1.43537775e-01 2.49422923e-01
      2.93993056e-01 3.52113647e-03 3.18676010e-02 3.41762863e-02
      7.38913044e-02 1.61123034e-02 1.27126379e-02 3.31793576e-02
      3.29097688e-01 3.68195534e-01 1.40161356e-02 5.04497699e-02
      4.98124436e-02 1.36207461e-01 1.11548798e-02 1.13731138e-02
      4.29891124e-02 3.68195534e-01 3.68195534e-01 8.10170360e-03
      1.23743536e-02 2.17021964e-02 3.76870893e-02 4.80405847e-03
      2.82334513e-03 1.06210588e-02 3.68195534e-01 3.05201292e-01
      1.02463225e-02 3.43823968e-03 9.46519285e-05 1.68351363e-03
      2.28268225e-04 1.76501737e-04 2.53850711e-04 2.99324960e-01
      3.05916965e-01 1.07689917e-01 5.01262583e-02 0. 1.36012072e-03
      4.79633425e-04 3.99277657e-02 4.02530022e-02 2.49970019e-01
      3.68874639e-01 4.56428379e-02 3.63293402e-02 1.67560503e-02
      2.02727914e-02 1.31960807e-03 3.53503274e-03 1.75458603e-02
      3.68874639e-01 3.68874639e-01 1.85764298e-01 1.49220675e-01
      4.80813198e-02 9.06879157e-02 1.98035277e-02 6.84231669e-02
      1.37764066e-01 3.68874639e-01 2.49337569e-01 6.90308586e-02
      8.97362009e-02 1.21343099e-01 2.18775123e-01 6.15692884e-02
      2.26988494e-01 1.65555328e-01 2.33440712e-01 2.56649584e-01
      2.52507906e-02 5.99132143e-02 9.25827473e-02 1.36267528e-01
      3.14450823e-02 1.50362849e-01 1.10787705e-01 2.56649584e-01
      7.26838857e-02 1.65671799e-02 1.67916819e-01 2.02813387e-01
      2.56649584e-01 1.20877929e-01 2.14661822e-01 1.44555256e-01
      1.22911923e-01 2.56649584e-01 3.46606821e-02 1.58088297e-01
      2.17297837e-01 2.05222666e-01 2.82296669e-02 1.31257460e-01
      1.44652888e-01 2.56649584e-01 3.51378560e-01 2.73804879e-03
      6.92704646e-03 1.53795630e-02 2.96835378e-02 5.72713185e-03
      9.65817831e-03 4.76206793e-03 3.51378560e-01 3.51378560e-01
      1.38323437e-02 5.89413289e-03 1.14828637e-02 3.92177654e-03
      8.18522705e-04 2.36088512e-04 7.44592180e-05 3.51378560e-01
      3.51378560e-01 5.68692610e-02 1.40733114e-02 3.02280597e-02
      3.78080830e-02 4.65631345e-03 7.61061069e-03 3.00210770e-02
      3.51378560e-01 3.51378560e-01 1.72696784e-02 5.24165189e-05 0.
      1.84243289e-03 9.17623765e-05 3.21836735e-04 3.24386841e-04
      3.51378560e-01 3.52749795e-01 1.55192697e-02 2.66953558e-03
      7.48229679e-03 4.84471722e-03 1.09940825e-03 5.84805675e-04
      2.13137770e-04 3.52749795e-01 3.52749795e-01 1.85601730e-02
      4.89119790e-04 7.45802943e-04 1.82571113e-02 3.27697955e-04
      4.65533492e-04 2.98249273e-04 3.52749795e-01 3.52749795e-01
      1.09118992e-03 1.50586653e-04 0. 1.36085309e-03 0. 4.82628326e-04
      3.76311335e-04 3.52749795e-01 3.52749795e-01 1.43654586e-03
      6.84484767e-05 8.30442368e-05 1.60514505e-03 0. 1.11375761e-04
      3.26223584e-04 3.52749795e-01 3.52144808e-01 3.88306938e-03
      2.71832716e-04 8.55686609e-04 1.97695773e-02 9.18205842e-05
      1.67736769e-04 4.16274386e-04 3.52144808e-01 3.52144808e-01
      9.16522462e-03 7.36372313e-04 5.61396591e-03 3.83942202e-02
      1.03566865e-03 3.09087045e-04 3.34176322e-04 3.52144808e-01
      3.52144808e-01 4.33885114e-04 8.21668873e-05 3.48024361e-04
      1.36616803e-03 0. 1.01539896e-04 9.42333209e-05 3.52144808e-01
      3.52144808e-01 1.63557921e-02 1.05679827e-03 3.98045173e-03
      4.40283902e-02 2.27847137e-03 5.14580286e-04 1.43088046e-02
      3.52144808e-01 2.73118943e-01 7.44704083e-02 7.63585195e-02
      6.80727214e-02 1.70442253e-01 1.98120195e-02 3.10185496e-02
      3.30328867e-02 2.73118943e-01 2.73118943e-01 1.45755917e-01
      1.84405997e-01 1.29945248e-01 2.73118943e-01 5.05175963e-02
      6.23496473e-02 1.10777110e-01 2.73118943e-01 2.73118943e-01
      8.66361856e-02 4.61872481e-02 7.42949396e-02 2.73118943e-01
      6.25387430e-02 6.96396455e-02 7.08170682e-02 2.73118943e-01
      2.23636210e-01 1.04696356e-01 9.80420113e-02 1.47013798e-01
      2.73118943e-01 1.19615525e-01 1.07184254e-01 8.76554251e-02
      1.81540579e-01</_>
    <_>
      2.13465720e-01 1.14582218e-01 1.24925613e-01 1.35211706e-01
      2.27399528e-01 1.08689545e-02 1.08989678e-01 1.27144337e-01
      2.68564373e-01 2.19002828e-01 2.50463754e-01 1.48414582e-01
      1.53435215e-01 2.68564373e-01 1.18188210e-01 1.36396438e-01
      9.88123566e-02 2.40394354e-01 1.08975738e-01 6.15023226e-02
      7.38925636e-02 1.45648703e-01 2.68564373e-01 5.48629947e-02
      8.49441141e-02 1.22290790e-01 2.10400358e-01 1.31097823e-01
      1.73481017e-01 9.40105170e-02 1.98339209e-01 2.68564373e-01
      1.79600105e-01 8.36957917e-02 9.81924832e-02 1.54333130e-01
      8.49845633e-02 1.02968119e-01 1.50602445e-01 2.58964807e-01
      3.43869030e-01 2.08508402e-01 1.40665889e-01 2.29504425e-02
      8.77318978e-02 4.20277985e-03 1.28998328e-02 1.16620496e-01
      1.73537776e-01 3.43869030e-01 1.00561015e-01 8.92773792e-02
      1.71522237e-02 8.50705244e-03 3.37498896e-02 5.84881492e-02
      6.93575293e-02 3.25936049e-01 3.43869030e-01 3.29649985e-01
      3.04468703e-02 2.39929999e-03 2.44618915e-02 6.08076924e-04
      5.84749319e-03 4.28084359e-02 1.68999121e-01 3.43869030e-01
      1.61057189e-01 1.85322994e-03 1.43518546e-05 9.36407188e-04 0.
      4.47893329e-02 4.05315876e-01 3.26605648e-01 5.32823265e-01
      1.47550032e-01 2.15090007e-01 2.50202622e-02 0. 0. 0. 0. 0. 0. 0.
      0. 0. 0. 1.91899948e-04 2.03587878e-02 1.49042994e-01
      2.24153474e-01 5.32823265e-01 1.11283131e-01 0. 0. 1.91899948e-04
      8.31566460e-04 0. 0. 0. 0. 0. 0. 0. 8.31566460e-04 0. 0. 0. 0. 0.
      0. 0. 0. 0. 0. 0. 0. 0. 0. 0. 0. 0. 0. 6.09753788e-01 0. 0. 0. 0.
      0. 0. 0. 6.09753788e-01 0. 0. 0. 0. 0. 0. 0. 0. 0. 0. 0. 0. 0. 0.
      0. 0. 0. 0. 0. 0. 0. 0. 0. 0. 0. 0. 0. 4.09653157e-01 0. 0. 0. 0.
      0. 0. 0. 4.09653157e-01 5.26696920e-01 0. 0. 0. 0. 0. 0. 0.
      5.26696920e-01 2.61939932e-02 9.06758476e-03 6.64128689e-04
      9.35601741e-02 4.41755205e-01 1.32038310e-01 4.76616638e-04
      1.52060855e-02 3.50659527e-02 2.08575875e-02 2.31993571e-02
      3.01876687e-04 1.82936490e-01 4.41755205e-01 1.72536790e-01
      2.29513831e-03 1.33452090e-02 2.49726456e-02 7.02589238e-03 0. 0.
      1.24855854e-01 4.41755205e-01 2.39173859e-01 1.49392625e-04 0.
      7.02589238e-03 4.78857910e-05 6.30607838e-06 1.88701924e-05
      1.91413686e-01 4.41755205e-01 1.09695747e-01 3.44752189e-05 0.
      4.78857910e-05 5.47475694e-03 3.57459905e-03 0. 1.68268114e-01
      3.92260432e-01 2.10233822e-01 2.28698784e-03 7.27914320e-03
      2.75323074e-02 2.41647456e-02 2.19438076e-02 3.78119503e-03
      6.00358695e-02 3.92260432e-01 1.28783941e-01 1.19345021e-02
      1.24891186e-02 5.97843863e-02 2.45633163e-02 5.76208159e-03
      4.28986363e-03 1.67080864e-01 3.92260432e-01 1.81353554e-01
      1.32953878e-02 3.04675382e-02 1.00277483e-01 1.12268239e-01
      2.11592734e-01 9.72158089e-02 9.52628180e-02 3.92260432e-01
      2.76655734e-01 8.22005868e-02 7.31106028e-02 2.11972088e-01
      9.04185846e-02 3.90810072e-02 1.04862489e-02 2.31271870e-02
      9.75629985e-02 2.83062644e-02 3.03295739e-02 1.93036236e-02
      5.98726161e-02 1.25455350e-01 1.84253454e-02 1.55265527e-02
      2.49079652e-02 2.92019658e-02 1.81350634e-02 4.58005928e-02
      1.80771649e-02 7.38822073e-02 2.53764600e-01 2.53764600e-01
      2.15481147e-01 1.64621636e-01 2.53764600e-01 2.53764600e-01
      1.94255978e-01 1.63307592e-01 1.75465792e-01 2.53764600e-01
      2.26292148e-01 2.53764600e-01 2.53764600e-01 2.53764600e-01
      2.53764600e-01 2.53764600e-01 1.32738903e-01 2.53764600e-01
      7.93144405e-02 3.16965953e-02 1.93994604e-02 1.11137321e-02
      3.38325240e-02 1.81484167e-02 1.85854454e-02 1.05851879e-02
      6.12031259e-02 7.37488270e-02 2.77100448e-02 2.53121294e-02
      1.54523533e-02 2.66544055e-02 4.26240489e-02 8.00476596e-03
      2.99775135e-02 7.16181695e-02 2.50646442e-01 2.50646442e-01
      2.50646442e-01 2.46431544e-01 2.50646442e-01 2.50646442e-01
      1.80663258e-01 8.70505199e-02 2.50646442e-01 2.50646442e-01
      2.50646442e-01 2.50646442e-01 2.50646442e-01 2.50646442e-01
      2.50646442e-01 1.56973198e-01 1.61318764e-01 2.50646442e-01
      7.55730569e-02 1.69691425e-02 2.09408924e-02 1.58823691e-02
      6.53003436e-03 2.88462304e-02 9.99724027e-03 1.47930486e-02
      5.67084067e-02 8.45479593e-02 4.00428250e-02 2.85649151e-02
      2.52196547e-02 2.11767238e-02 2.46402808e-02 1.38272587e-02
      2.89205778e-02 6.75401613e-02 2.61284232e-01 2.27849871e-01
      2.61284232e-01 2.61284232e-01 1.48867339e-01 2.61284232e-01
      1.61262840e-01 6.32211342e-02 2.61284232e-01 2.61284232e-01
      2.61284232e-01 2.61284232e-01 2.60813206e-01 2.61284232e-01
      2.61284232e-01 1.25595301e-01 1.74927056e-01 2.61284232e-01
      3.47428001e-03 0. 0. 1.62787706e-01 4.14587080e-01 2.07507998e-01
      6.89388107e-05 0. 3.47428001e-03 6.33102172e-06 2.76094124e-05
      8.26178948e-05 1.45485029e-01 4.14587080e-01 9.04074535e-02
      7.12501642e-05 2.21557111e-05 6.33102172e-06 4.16668132e-03 0. 0.
      2.92493224e-01 4.14587080e-01 2.09585711e-01 1.51665357e-04 0.
      4.16668132e-03 2.34434102e-03 2.14739921e-05 6.42583691e-05
      1.56650588e-01 4.14587080e-01 2.35256135e-01 1.59521485e-04
      2.84859143e-05 1.43012102e-03 1.83132645e-02 8.30890145e-03
      1.11582782e-02 1.64485589e-01 3.38162303e-01 1.45143375e-01
      8.78006313e-03 1.96316298e-02 4.88360263e-02 7.90782347e-02
      1.93368763e-01 1.10940658e-01 1.39067769e-01 3.38162303e-01
      2.29622543e-01 5.06916828e-02 7.60860741e-02 1.18349262e-01
      4.72654067e-02 3.11238263e-02 4.08686921e-02 1.90919176e-01
      3.38162303e-01 2.66594827e-01 5.87833347e-03 2.03658901e-02
      1.73452459e-02 1.19895987e-01 8.02929103e-02 1.32604510e-01
      2.14248285e-01 3.38162303e-01 2.49709830e-01 1.08941175e-01
      2.28884548e-01 1.15142293e-01 1.55008063e-01 2.16499597e-01
      1.26784161e-01 9.08996314e-02 2.43467093e-01 1.54766783e-01
      8.48762691e-02 9.96374637e-02 7.37941191e-02 2.31286794e-01
      1.43767267e-01 1.83767274e-01 1.80311918e-01 2.43467093e-01
      1.57117218e-01 1.71982124e-01 8.85349289e-02 1.26371741e-01
      1.10371843e-01 5.78309111e-02 9.85626802e-02 1.31993130e-01
      2.43467093e-01 1.50148094e-01 1.99739560e-01 2.43467093e-01
      1.30386829e-01 1.71782851e-01 7.46460333e-02 1.56410679e-01
      1.08652592e-01 2.43467093e-01 1.55570850e-01 2.43467093e-01
      2.21918911e-01 1.21326730e-01 1.45567432e-01 1.30978957e-01
      1.37757853e-01 1.62105575e-01 2.61675656e-01 1.37035578e-01
      1.04271524e-01 5.77326268e-02 1.52298868e-01 1.10399462e-01
      2.04066902e-01 1.47275344e-01 2.35503212e-01 2.61675656e-01
      2.33305544e-01 8.82073641e-02 7.96166509e-02 1.39413208e-01
      1.46093398e-01 6.60851002e-02 9.39589292e-02 6.23715110e-02
      2.61675656e-01 1.50308907e-01 2.17766523e-01 1.45807266e-01
      1.29786029e-01 1.41982496e-01 6.72649890e-02 1.03346579e-01
      1.59243003e-01 2.61675656e-01 1.76211596e-01 2.59141773e-01
      1.67285934e-01 1.76856115e-01 1.70991331e-01 1.38044417e-01
      1.84949800e-01 2.00819567e-01 2.35626802e-01 2.10149735e-01
      9.45375413e-02 3.46946232e-02 1.31609380e-01 1.59156159e-01
      1.07833542e-01 2.35626802e-01 1.56666011e-01 2.35626802e-01
      2.22192958e-01 7.50144199e-02 6.50350153e-02 1.21976092e-01
      1.26948386e-01 4.59290035e-02 9.74420905e-02 1.62441120e-01
      2.35626802e-01 1.55930698e-01 2.22155586e-01 1.25609577e-01
      2.17889071e-01 9.65139493e-02 5.98930679e-02 1.17341600e-01
      1.79382265e-01 2.35626802e-01 2.34055504e-01 1.99423596e-01
      1.15213960e-01 1.79665878e-01 5.10317693e-03 0. 0. 2.07716078e-01
      4.32303101e-01 5.69909513e-02 3.41593077e-05 0. 5.10317693e-03
      4.01996262e-03 0. 0. 1.68257892e-01 4.32303101e-01 2.46302947e-01
      5.71218952e-05 3.89139723e-06 2.49849679e-03 5.55311367e-02
      2.56823283e-02 7.37801008e-03 8.57710987e-02 4.32303101e-01
      1.16761841e-01 5.46532124e-03 1.28056649e-02 3.72262001e-02
      4.37754504e-02 2.41780616e-02 5.73845254e-03 1.99112460e-01
      4.32303101e-01 2.04725310e-01 1.46696782e-02 3.52795199e-02
      2.78230887e-02 7.73076639e-02 5.81111647e-02 5.96679188e-02
      1.97191998e-01 3.70779037e-01 2.43736312e-01 3.54577391e-03
      9.10815597e-03 1.61855686e-02 1.86424091e-01 1.01459451e-01
      1.67909414e-01 1.89223841e-01 3.70779037e-01 1.51490688e-01
      1.17350690e-01 1.49804667e-01 1.18232265e-01 2.79533472e-02
      2.19422486e-02 1.83033347e-02 2.48319000e-01 3.70779037e-01
      2.26566419e-01 2.59335013e-03 6.24236232e-03 5.94109716e-03
      6.70875981e-02 3.32583264e-02 4.23510820e-02 1.37233660e-01
      3.70779037e-01 1.00695759e-01 1.86935402e-02 1.03016496e-02
      3.36681306e-02 2.50795186e-01 7.10557029e-02 2.14234367e-01
      1.91392362e-01 2.50795186e-01 1.84056416e-01 2.50795186e-01
      2.50795186e-01 2.50795186e-01 2.50795186e-01 1.50261000e-01
      2.50795186e-01 1.28214002e-01 2.50795186e-01 1.87324405e-01
      2.50795186e-01 2.50795186e-01 2.50795186e-01 1.03572451e-01
      2.21267659e-02 5.12671284e-02 3.13073061e-02 1.10208526e-01
      2.88000647e-02 8.04961696e-02 3.02280616e-02 1.14482716e-01
      9.97002795e-02 5.62191978e-02 9.25497040e-02 2.75211725e-02
      2.21859850e-02 2.81141866e-02 9.39107612e-02 5.52638322e-02
      1.61779001e-01 2.48432651e-01 1.39321119e-01 2.07049727e-01
      6.38405085e-02 2.52546996e-01 1.51900366e-01 2.52546996e-01
      2.52546996e-01 2.51397580e-01 2.52546996e-01 9.44165662e-02
      2.42266133e-01 2.41358563e-01 2.52546996e-01 1.96836412e-01
      2.52546996e-01 2.52546996e-01 2.52546996e-01 9.32974443e-02
      3.68993953e-02 4.68252040e-02 1.71290897e-02 2.81136781e-02
      1.55873708e-02 7.92669505e-02 6.89836890e-02 1.19773582e-01
      1.64659083e-01 2.80178376e-02 5.71921207e-02 6.15162961e-02
      2.91630607e-02 1.97939202e-02 1.17853910e-01 7.77999088e-02
      1.14765599e-01 2.41217092e-01 7.78012872e-02 2.25903809e-01
      2.08439663e-01 2.41217092e-01 1.77699760e-01 2.41217092e-01
      1.85306400e-01 2.41217092e-01 2.15216279e-01 1.60434023e-01
      2.29208529e-01 2.41217092e-01 2.41217092e-01 2.41217092e-01
      2.41217092e-01 2.41217092e-01 2.41217092e-01 1.34005696e-01
      3.55237462e-02 6.30194917e-02 4.35238890e-02 1.19583821e-02
      2.07380988e-02 1.16775312e-01 5.01994602e-02 8.51049051e-02
      1.31552294e-01 7.32372180e-02 7.77813718e-02 7.63649046e-02
      1.77848823e-02 3.66894417e-02 1.52736679e-01 7.12441504e-02
      1.04951330e-01 2.05574095e-01 1.69876024e-01 7.46028647e-02
      6.66783080e-02 2.51678348e-01 1.36414632e-01 6.60612211e-02
      1.05135553e-01 8.96465406e-02 1.54274568e-01 1.10321216e-01
      6.50893822e-02 1.05960704e-01 2.51678348e-01 1.47027031e-01
      1.67910159e-01 1.89968973e-01 7.61952996e-02 2.51678348e-01
      1.79965630e-01 8.51363465e-02 2.62547620e-02 1.66282699e-01
      9.62033272e-02 1.47209883e-01 2.26707131e-01 2.51678348e-01
      2.38294542e-01 1.08825333e-01 1.05391942e-01 7.01112673e-02
      2.51678348e-01 1.54771283e-01 2.51678348e-01 2.51678348e-01
      1.69869721e-01 2.61624698e-02 7.81223364e-03 2.86978558e-02
      2.15205729e-01 3.70140910e-01 2.63794780e-01 9.22298878e-02
      6.40852153e-02 1.89390182e-02 9.20494145e-04 2.34465886e-04
      2.18923390e-03 1.02417514e-01 3.70140910e-01 1.58766538e-01
      3.44941840e-02 6.39413483e-04 4.02380538e-04 1.01947784e-01
      1.67075489e-02 1.29162535e-01 1.48110390e-01 3.70140910e-01
      2.84203410e-01 2.14143351e-01 1.03524938e-01 8.77397433e-02
      1.13779912e-02 7.67431082e-03 8.00665915e-02 7.17063323e-02
      3.70140910e-01 2.32319117e-01 1.44274086e-01 2.86080106e-03
      8.80002230e-03 1.91906933e-03 1.97600806e-04 6.35461009e-04
      5.91778532e-02 4.95872408e-01 1.80105999e-01 9.81328189e-02
      2.39508273e-03 2.62503256e-03 5.02255373e-03 2.54058192e-04
      1.42273039e-03 1.35511672e-03 8.92303709e-04 0. 1.47184287e-03
      1.62549596e-03 6.57567242e-03 3.86292418e-03 2.12889910e-02
      1.87994793e-01 8.57366547e-02 4.95872408e-01 4.95872408e-01
      4.10442740e-01 8.39031860e-03 3.86292418e-03 2.24657866e-04 0. 0.
      0. 2.11323751e-03 0. 0. 0. 2.24657866e-04 3.29026252e-01
      3.62211764e-02 2.43842266e-02 3.97097059e-02 2.69508082e-02 0.
      5.72712012e-02 3.67428400e-02 3.39723378e-01 6.08082175e-01
      7.60320425e-02 0. 0. 4.21448536e-02 0. 4.63710167e-02
      9.62424427e-02 6.09059036e-01 0. 0. 0. 0. 0. 0. 0. 0. 0. 0. 0. 0.
      0. 0. 0. 0. 0. 0. 3.75890523e-01 8.58138967e-03 0. 0.
      3.29927467e-02 1.41742257e-02 2.57105995e-02 3.10492013e-02
      3.41281682e-01 6.04377627e-01 0. 0. 0. 3.76953520e-02
      3.11832968e-02 1.64970402e-02 4.18420183e-04 6.04377627e-01 0. 0.
      0. 0. 0. 0. 0. 0. 0. 0. 0. 0. 0. 0. 0. 0. 0. 0.</_>
    <_>
      2.69374158e-02 1.09070741e-01 1.74642473e-01 2.10524648e-01
      2.88414329e-01 4.00277674e-02 1.09153008e-02 2.66689342e-03
      1.16045130e-02 1.35358110e-01 1.59452617e-01 1.89918190e-01
      1.94799781e-01 2.88414329e-01 1.36960521e-01 1.63096249e-01
      3.27164978e-02 1.03491560e-01 6.96019828e-02 6.83501437e-02
      9.75682437e-02 2.12773055e-01 2.88414329e-01 2.03809753e-01
      5.26721142e-02 5.33590047e-03 5.78376837e-02 2.88414329e-01
      1.77364588e-01 1.88178718e-01 1.66006386e-01 2.88414329e-01
      1.39537856e-01 8.52369443e-02 2.55849455e-02 2.88414329e-01
      2.59698361e-01 9.16756764e-02 8.38357508e-02 1.13375619e-01
      2.52662510e-01 1.10522360e-01 1.24134168e-01 2.29775850e-02
      2.42020994e-01 3.33255500e-01 3.67883337e-03 9.52789327e-04
      6.55541569e-03 4.05579507e-02 5.63365268e-03 5.26297465e-03
      8.19829851e-02 3.33255500e-01 3.33255500e-01 7.74498582e-02
      9.24353525e-02 1.36268929e-01 1.88847378e-01 5.97098805e-02
      4.40365337e-02 1.25283869e-02 3.33255500e-01 3.33255500e-01
      4.33997222e-04 1.42111129e-03 8.86750128e-03 3.06969360e-02
